svm_type c_svc
kernel_type rbf
gamma 0.003861
nr_class 49
total_sv 5547
rho 0.131101 0.0735821 0.24011 0.108417 0.226505 -0.353346 0.278648 0.467562 0.369917 0.112683 0.599501 0.296988 0.165063 0.321238 0.273207 0.288303 0.0609706 0.00190541 -0.200234 0.239204 0.285849 0.37717 0.0836758 -0.115733 0.104972 -0.129247 0.54804 -0.101343 0.555662 -0.0626065 0.199506 0.0762283 0.279992 0.149149 0.301879 -0.368325 -0.158649 -0.00455333 -0.344103 0.22521 -0.0631069 0.400746 0.140246 0.12546 -0.149046 -0.232553 -0.112885 -0.0164851 -0.0296239 0.0807847 0.0573236 0.133428 -0.490366 0.255848 0.472757 0.215548 -0.00632207 0.564707 0.186076 -0.0724554 0.289956 0.102497 0.260422 -0.0726053 -0.128982 -0.27423 0.0508498 0.151972 0.299018 -0.0329805 -0.158836 -0.0851979 -0.272483 0.382129 -0.204029 0.41006 -0.226036 0.0477444 -0.0468821 0.0967812 0.0254181 0.277503 -0.586408 -0.347989 -0.129079 -0.484401 0.184184 -0.174925 0.292033 0.0504941 0.00777424 -0.342209 -0.336744 -0.235372 -0.137132 0.139112 0.166546 0.176042 -0.471073 0.297845 0.528137 0.291818 -0.000170255 0.803223 0.178899 0.0498052 0.322292 0.233398 0.20548 -0.0839339 -0.141152 -0.23682 0.122321 0.304946 0.322036 0.0641161 -0.194574 -0.0403886 -0.231039 0.405178 -0.197583 0.454375 -0.114065 0.121845 -0.0555832 0.174087 0.0703364 0.258377 -0.463269 -0.359141 -0.134719 -0.412831 0.182137 -0.178601 0.291103 0.120061 0.0212318 -0.321614 -0.390894 -0.186199 -0.119644 0.0535266 0.0294949 -0.526895 0.115938 0.287211 0.261114 -0.163494 0.480201 0.197646 -0.132498 0.187824 0.159244 0.113172 -0.145986 -0.215173 -0.372446 0.0214855 0.180393 0.220091 -0.0294318 -0.304096 -0.0769944 -0.292333 0.355394 -0.318402 0.382127 -0.280638 0.0513401 -0.112671 0.0426548 0.0958876 0.19311 -0.71046 -0.31393 -0.223618 -0.517459 0.0502264 -0.331196 0.259958 -0.0569631 -0.119942 -0.41262 -0.406695 -0.260545 -0.172437 0.0549878 -0.487003 0.22922 0.462665 0.187057 -0.0393073 0.711598 0.1036 -0.0993866 0.275823 0.139142 0.18572 -0.171068 -0.263994 -0.421666 0.0291103 0.226297 0.260199 -0.0304894 -0.242715 -0.0879627 -0.352729 0.355333 -0.239354 0.382042 -0.168393 0.0349624 -0.169786 0.114679 -0.000123452 0.224803 -0.631969 -0.573333 -0.278321 -0.561161 0.109649 -0.302542 0.212526 0.0451659 -0.0554643 -0.373384 -0.429205 -0.317815 -0.221368 -0.465568 0.135744 0.333109 0.157862 -0.17315 0.417121 0.0520036 -0.154431 0.193611 -0.0730548 0.0742415 -0.215148 -0.345214 -0.501971 -0.0415103 0.0334522 0.137647 -0.0322062 -0.343843 -0.115051 -0.384637 0.345143 -0.360561 0.318063 -0.24347 -0.0813114 -0.250297 0.00909474 -0.114407 0.163674 -0.713219 -0.359067 -0.242813 -0.646443 0.00773097 -0.286794 0.132449 -0.0692394 -0.103434 -0.416126 -0.419005 -0.316458 -0.206021 0.646422 0.884847 0.699235 0.39272 0.820919 0.495454 0.456474 0.595383 0.598552 0.523526 0.321046 0.310704 0.127966 0.499621 0.488207 0.637303 0.250529 0.242828 0.30227 0.263767 0.687121 0.0934387 0.699711 0.138974 0.418246 0.358108 0.444768 0.378297 0.598723 -0.115762 0.161864 0.449087 -0.0501829 0.539023 0.2199 0.72032 0.442432 0.467623 0.147522 0.023605 0.280836 0.294028 0.204872 0.0600364 -0.296918 0.245403 -0.0956722 -0.207916 0.0698869 -0.124796 -0.120537 -0.373152 -0.430449 -0.523582 -0.149408 -0.0563973 0.0493875 -0.200971 -0.421908 -0.236837 -0.373876 0.233985 -0.408667 0.227619 -0.357857 -0.126671 -0.334783 -0.0917678 -0.26078 0.0345566 -0.804684 -0.609389 -0.35013 -0.717444 -0.0624312 -0.427502 0.0692615 -0.189047 -0.253692 -0.528219 -0.523802 -0.357372 -0.315451 -0.0881868 -0.398497 0.116287 -0.17734 -0.427243 -0.134013 -0.21333 -0.246333 -0.458847 -0.474398 -0.73582 -0.26891 -0.0491094 -0.0473772 -0.392492 -0.59808 -0.399041 -0.733405 0.0313296 -0.590314 0.124459 -0.610664 -0.418374 -0.507174 -0.19636 -0.291639 -0.155738 -0.951246 -0.774371 -0.453571 -0.930928 -0.303407 -0.587448 -0.0820006 -0.345538 -0.402691 -0.598154 -0.751379 -0.660661 -0.436973 -0.330478 0.164951 -0.0030028 -0.283759 0.0800682 -0.112355 -0.0546316 -0.441936 -0.356131 -0.577077 -0.156564 -0.0532315 0.0366777 -0.205455 -0.538529 -0.252992 -0.404397 0.192062 -0.514606 0.259238 -0.453617 -0.163379 -0.271014 -0.0520972 -0.271275 0.0187381 -0.955911 -0.445417 -0.370929 -0.720441 -0.0919311 -0.566342 -0.0181448 -0.235327 -0.330289 -0.490122 -0.60768 -0.44438 -0.349285 0.554135 0.299665 0.000810977 0.294081 0.267936 0.188421 -0.073404 -0.0888474 -0.21222 0.106743 0.322429 0.29166 0.146345 -0.22412 0.0182053 -0.229884 0.434698 -0.332206 0.512748 -0.147413 0.0791473 -0.0318597 0.146125 0.130354 0.273255 -0.620903 -0.245211 -0.0425818 -0.503286 0.124072 -0.226492 0.319773 0.114275 0.0196336 -0.285857 -0.294272 -0.195784 0.0165486 -0.359644 -0.456393 -0.22176 -0.375514 -0.38307 -0.689508 -0.698793 -0.87223 -0.314397 -0.251847 -0.113966 -0.609484 -0.67939 -0.660941 -0.800276 -0.0287902 -0.787212 0.0381633 -0.783027 -0.365716 -0.619241 -0.218899 -0.422055 -0.332021 -1.18077 -1.17812 -0.610715 -1.0931 -0.331915 -0.61304 -0.121225 -0.425182 -0.518383 -0.693316 -0.787457 -0.676633 -0.66869 -0.257517 0.128461 -0.128487 -0.00923298 -0.450349 -0.296366 -0.609104 -0.116734 -0.0362911 0.113575 -0.15718 -0.40213 -0.279883 -0.445205 0.241777 -0.645678 0.284603 -0.368077 -0.121233 -0.234237 -0.0424534 -0.286529 0.0217186 -0.97832 -0.490383 -0.290107 -0.823977 -0.00470317 -0.387898 0.0695428 -0.157645 -0.243321 -0.473397 -0.523432 -0.391625 -0.23321 0.361348 0.112506 0.257456 -0.100431 -0.115211 -0.347888 0.330768 0.205223 0.259346 -0.099249 -0.218818 -0.0688628 -0.39379 0.393189 -0.190182 0.421221 -0.28739 0.0324382 -0.0724064 0.119628 0.0141883 0.208565 -0.71612 -0.224808 -0.107561 -0.584959 0.138826 -0.119913 0.233936 0.0580404 0.0443796 -0.214514 -0.316991 -0.232182 -0.0700312 -0.2339 -0.174413 -0.348565 -0.539414 -0.604663 -0.213796 -0.0991761 -0.0283214 -0.365406 -0.531893 -0.381701 -0.797871 0.0852088 -0.424874 0.14353 -0.488254 -0.223567 -0.353782 -0.216417 -0.257503 -0.116814 -0.851918 -0.58593 -0.426745 -0.901431 -0.18117 -0.360306 0.0267953 -0.21556 -0.216638 -0.451648 -0.51999 -0.507059 -0.409621 -0.00145785 -0.388875 -0.311528 -0.417273 -0.0437057 0.229278 0.113749 -0.092216 -0.39832 -0.227952 -0.486695 0.252477 -0.540512 0.359544 -0.343732 -0.0388856 -0.21857 0.0274889 -0.0757281 0.0380681 -0.950311 -0.44202 -0.251664 -0.714978 0.00509757 -0.399782 0.169689 -0.10674 -0.159523 -0.496571 -0.588234 -0.356736 -0.273723 -0.205824 -0.527799 -0.503479 -0.0655651 0.0745445 0.207196 -0.204891 -0.287052 -0.246829 -0.609787 0.181598 -0.376759 0.31009 -0.4055 -0.0913057 -0.242571 -0.0713188 -0.0767355 0.0223269 -0.819729 -0.60628 -0.393396 -0.740063 0.0349803 -0.333949 0.0926119 -0.0799739 -0.159928 -0.453026 -0.440751 -0.430122 -0.361817 -0.101204 -0.15014 0.186876 0.440403 0.393696 0.120928 -0.0812244 0.0393284 -0.257976 0.460387 -0.223649 0.53679 -0.0928815 0.189423 0.00582775 0.234047 0.228671 0.330733 -0.653078 -0.160345 -0.0341783 -0.457561 0.222245 -0.121276 0.380599 0.189452 0.0583109 -0.20226 -0.287096 -0.138748 0.00767362 -0.179043 0.246309 0.314955 0.519037 -0.0559661 0.0901581 0.10057 -0.0237947 0.565084 -0.0868778 0.564157 -0.114854 0.195859 0.0924826 0.215158 0.160478 0.416473 -0.4682 -0.181517 -0.142381 -0.423025 0.227741 -0.0564618 0.353134 0.146834 0.0801376 -0.137309 -0.273351 -0.0882367 -0.0637694 0.435991 0.456128 0.576889 0.13482 0.195977 0.211307 0.100742 0.705534 0.0146391 0.818713 -0.0912682 0.432634 0.220325 0.487744 0.267721 0.509172 -0.523315 -0.0102397 0.107812 -0.309124 0.350498 0.091809 0.414468 0.326679 0.212418 -0.00193785 -0.115921 -0.0261199 0.228511 0.122504 0.198977 -0.145205 -0.362567 -0.100185 -0.410777 0.302604 -0.24677 0.414619 -0.331747 -0.0046128 -0.107796 0.105167 -0.0653918 0.123288 -0.673066 -0.297168 -0.215611 -0.582879 -0.00958929 -0.275998 0.134108 -0.0534677 -0.0764888 -0.287456 -0.398002 -0.32265 -0.170396 0.048977 -0.151804 -0.419758 -0.226515 -0.445481 0.175527 -0.47927 0.239957 -0.32636 -0.125244 -0.216631 -0.0111999 -0.0555713 0.0230718 -0.822299 -0.448871 -0.265967 -0.699395 -0.0524388 -0.368022 0.079071 -0.152099 -0.193247 -0.463935 -0.504313 -0.342733 -0.234437 -0.377206 -0.543023 -0.359987 -0.563282 0.136612 -0.491828 0.335722 -0.538729 -0.157851 -0.414479 -0.126333 -0.214843 -0.15769 -1.02651 -0.636707 -0.401815 -0.860884 -0.178952 -0.521634 -0.0801152 -0.215317 -0.323023 -0.570725 -0.65756 -0.54801 -0.329935 0.019029 0.0631495 -0.178291 0.497869 -0.78782 0.632725 -0.531149 0.11526 0.0802086 0.195094 -0.0291961 0.26121 -0.757554 -0.207066 -0.020199 -0.426391 0.228595 -0.177766 0.286901 0.049938 0.0575744 -0.228174 -0.241448 -0.115588 -0.0221228 0.120437 -0.275869 0.626008 -0.13963 0.723857 -0.1931 0.308737 0.0716774 0.373276 0.23743 0.417884 -0.945768 -0.12531 0.0927542 -0.680786 0.303779 -0.00396459 0.437859 0.299474 0.157575 -0.106108 -0.136424 -0.0171779 0.0809577 -0.0954266 0.467239 -0.23284 0.508901 -0.17057 0.124046 0.0671974 0.147676 0.0603759 0.343074 -0.600567 -0.19856 -0.0714095 -0.441172 0.170237 -0.161372 0.232273 0.111497 0.0430379 -0.198475 -0.413269 -0.129539 -0.0344956 0.604463 -0.152711 0.617233 0.0558412 0.337047 0.164224 0.372314 0.313375 0.347404 -0.569987 -0.0627955 0.0445504 -0.485653 0.546087 0.0437183 0.423867 0.26747 0.303969 -0.0346685 -0.148212 0.0323322 0.0769572 -0.616949 0.143495 -0.613752 -0.304329 -0.433754 -0.2345 -0.346554 -0.193094 -0.995192 -0.733444 -0.545442 -0.925665 -0.275526 -0.474658 -0.118082 -0.413173 -0.40483 -0.578446 -0.690192 -0.511297 -0.443241 0.688224 0.909483 0.245263 0.198115 0.336763 0.427614 0.399033 -0.273204 -0.0541522 0.0465637 -0.191893 0.400476 0.0331735 0.328926 0.378132 0.277389 0.00561017 -0.0813169 0.102369 0.0993838 -0.668082 -0.319085 -0.452076 -0.368915 -0.430189 -0.261069 -1.10527 -0.698761 -0.558862 -0.997814 -0.301694 -0.565729 -0.134711 -0.40785 -0.524538 -0.608168 -0.713241 -0.568353 -0.474887 0.259131 0.178358 0.382648 0.147088 0.366844 -0.703268 -0.0297006 0.118264 -0.249352 0.368178 -0.0390971 0.419185 0.281771 0.256406 -0.0455789 -0.0691802 0.0374444 0.109578 -0.137054 0.0495431 -0.0709281 0.098472 -0.64358 -0.322199 -0.197464 -0.619058 0.0659803 -0.166575 0.177859 0.006509 -0.0448939 -0.275665 -0.378038 -0.259917 -0.155276 0.126791 0.0205767 0.518937 -0.62945 -0.163423 -0.101726 -0.496975 0.174629 -0.132487 0.30724 0.0780918 0.0808648 -0.239472 -0.335174 -0.180933 -0.0609249 -0.102855 0.0382484 -0.681476 -0.321484 -0.213457 -0.580187 -0.0515779 -0.276612 0.113362 -0.0750723 -0.0954764 -0.335395 -0.433891 -0.354438 -0.220406 0.210029 -0.690468 -0.295441 -0.133589 -0.511935 0.153644 -0.18843 0.224141 0.00922578 -0.0981157 -0.316446 -0.388703 -0.222544 -0.104472 -0.737407 -0.536106 -0.305275 -0.653884 -0.0837954 -0.373176 0.0268983 -0.225307 -0.25141 -0.49809 -0.497172 -0.476941 -0.306213 0.320212 0.384931 0.24378 0.780669 0.393276 0.618765 0.710764 0.694541 0.357206 0.205614 0.34358 0.444082 0.131869 -0.251138 0.394632 0.0785034 0.456853 0.246047 0.321733 -0.0502881 -0.102209 -0.00903772 0.188214 -0.317367 0.187705 -0.105968 0.365268 0.194632 0.118248 -0.156054 -0.36086 -0.106113 0.0859868 0.791369 0.288077 0.572591 0.583987 0.583863 0.23994 0.0819099 0.290933 0.324818 -0.328433 0.157527 -0.0597692 -0.0767369 -0.320168 -0.474803 -0.389302 -0.148957 0.419967 0.268632 0.185684 -0.0336454 -0.252658 -0.0121863 0.107064 -0.179668 -0.320137 -0.449522 -0.68248 -0.451947 -0.353253 -0.0725567 -0.2872 -0.327792 -0.250983 -0.155588 -0.339656 -0.65335 -0.188118 -0.130744 -0.12948 0.0198987 0.166869 0.0932229 0.30393 0.115657
label 49 50 51 52 53 54 55 56 57 65 97 66 98 67 68 100 69 101 70 102 71 103 72 104 74 75 76 77 109 78 110 79 80 81 113 82 114 83 84 116 85 86 87 119 88 120 89 121 90
nr_sv 97 113 106 115 124 104 100 113 129 112 106 118 111 127 95 185 113 103 134 106 99 127 101 151 105 105 128 75 59 110 193 106 129 96 184 102 149 114 95 124 113 99 65 89 119 106 100 107 86
SV
0 0 0 0 0 0 0 0 0 0.9486781259818446 0 0 0 0 0.7701338056504483 0 0 0 0 0 0 0 0 0 0 0 0 0 0 0 0 0 0 0 0 0 0 0 0 0 0 0 0 1 1 0 0 0 47:1 48:1 74:1 99:1 100:1 113:1 138:1 139:1 164:1 178:1 187:1 188:1 190:1 193:1 202:1 205:1 206:1 207:1 
0 0 0 0 0 0 0 0 0 0 0 0 0 0 0 0 0 0 0.5838245694352965 0 0 0 0 0 0 0 0 0 0 0 0 0 0 0 0 0 0 0 0 0 0 0 0 0.3101807903658215 0 0 0 0 57:1 59:1 60:1 61:1 70:1 72:1 99:1 112:1 113:1 125:1 139:1 151:1 165:1 188:1 193:1 200:1 202:1 205:1 207:1 
0 0 0 0 0 0 0 0 0 0 0 0 0 0 0 0 0 0 0 0 0 0 0 0 0.501593773097709 0 0 0 0 0 0 0 0 0 0 0 0 0 0 0 0 0 0 0 0 1 0 0 47:1 59:1 70:1 73:1 74:1 99:1 125:1 138:1 139:1 152:1 164:1 190:1 193:1 205:1 207:1 
1 1 0.6506710285678197 1 1 1 1 1 0.1166112530389727 0 1 1 1 1 1 1 1 0.6216118638169289 1 1 1 0.7814872834455149 0 1 0 1 0 0 0 0 1 1 1 1 1 0.8003223624164645 1 1 1 1 0.1029062955561781 1 1 0 0 1 1 1 57:1 58:1 60:1 61:1 72:1 74:1 86:1 113:1 125:1 151:1 177:1 188:1 190:1 193:1 202:1 203:1 204:1 
0 0 0 0 0.3357483078679172 0 0 0 0.4153288172374293 0 0 0 0 0 0 0 0 0 0 0 0 0 0 0 0 0 0 0 0 0 0.432120574272622 0 0 0 0 0 0 0 0 0 0 0 0 0 0 0 0 0 46:1 48:1 59:1 70:1 71:1 73:1 74:1 99:1 138:1 152:1 164:1 178:1 188:1 193:1 203:1 204:1 205:1 207:1 
0 0 0.09512266727784265 0 0 0 0.2236012172184641 0 0.8171561154119056 0 0 0 1 0 0 0 0 0 0 0.6123462224466796 0 0 0 0 0 0 0 0 0 0 0 0 0 0 0 0 0 0 0 0 0 0 0 0 0 0 0 0.1815249170005612 48:1 58:1 59:1 60:1 61:1 72:1 87:1 113:1 139:1 164:1 165:1 188:1 190:1 193:1 200:1 202:1 205:1 207:1 
1 1 1 1 1 1 1 1 1 1 1 1 1 1 1 1 1 1 1 1 1 1 1 1 1 1 0.4396296066204263 1 1 1 1 1 1 1 1 1 0.5666152994360337 0 1 1 1 1 1 1 1 1 1 1 46:1 61:1 70:1 71:1 100:1 113:1 151:1 189:1 192:1 193:1 194:1 202:1 205:1 207:1 
0 0.8851167838850109 0 0 0 0 0 0 0 0 1 0 0 0 0 0 0 0 0 0 0 0 0 0 0 0 0 0 0 0 0 0 0 0 0 0 0 0 0 0 0 0 0 0 0 0 0 0 58:1 59:1 60:1 61:1 99:1 100:1 139:1 151:1 152:1 164:1 165:1 188:1 190:1 191:1 200:1 201:1 202:1 205:1 207:1 
1 1 1 1 1 1 1 1 0.1787302310265851 1 1 0 1 0 1 1 0.4958991347917356 1 0.2993424988658517 1 0.218226818618809 0.2870015786346463 0 1 0 1 1 0.2795833941892581 0 0.9967737008219784 1 0.8488101099460501 1 0.06338598265253695 0.6083044664976579 0.4995248574462166 1 1 0 0.01736987663108252 0.1931005118205443 0 1 0.8728860787052648 1 1 1 1 3:1 7:1 21:1 26:1 47:1 48:1 58:1 71:1 73:1 100:1 124:1 125:1 138:1 139:1 164:1 165:1 188:1 189:1 191:1 194:1 200:1 203:1 205:1 206:1 
1 0.690975712258343 0 0 0 0 0 0 0 0.1142279603255077 0 0 0 0 0 0 0 0 0 0 0 0.8185556551373975 0 0 0.4691586180136065 0 0 0 0.7816156736038181 0 0 0 0 0 0 0 0 1 0 0 0 0 0 1 0 0 0 0.6131686562690035 47:1 48:1 57:1 61:1 72:1 87:1 99:1 112:1 113:1 125:1 139:1 151:1 165:1 190:1 193:1 200:1 202:1 205:1 207:1 
1 1 0.2514571957741423 0.4987623924477278 0 0 1 1 0.8197075984982538 0.7954591472231288 1 1 1 1 1 1 0.9919274875161199 0 0.6387948569073862 1 0.8330567375256943 1 1 0.01683185611258195 0.2282699347380341 1 1 0.1072860840991434 1 0.08325380469978215 0 0 1 1 0 0.2244123174139929 1 0 0.3658722774622218 0.07937573310747227 0 0 0.7178462728676145 1 1 1 0.06394294869011222 1 1:1 46:1 57:1 61:1 69:1 71:1 72:1 73:1 99:1 100:1 113:1 125:1 139:1 164:1 165:1 173:1 187:1 189:1 191:1 194:1 201:1 203:1 205:1 206:1 207:1 248:1 
1 1 0.3061866101798195 0.8871723350763311 0.4726639554197239 1 0.6772188574536402 1 1 0.6331672091019199 1 0 1 1 0 1 0.03796699419164769 1 1 1 0 0 0 0 0 1 0 0 0 0 1 0.8770455533998334 1 0 1 0 1 1 0 0 0 0.7242031118656058 0 0 0 0 0.2988274283323593 0.4625400049699075 46:1 47:1 48:1 59:1 61:1 71:1 72:1 73:1 87:1 99:1 126:1 151:1 165:1 177:1 187:1 190:1 193:1 194:1 201:1 202:1 204:1 206:1 207:1 
0 0 0 0 0 0 0 0 0 0.2651424382371824 0 0 0 0 0 0 0 0 0 0 0 0 0 0 0 0 0 0 0 0 0 0 0 0 0 0 0 1 0 0 0 0 0 0 0 0 0 0 59:1 60:1 61:1 86:1 99:1 100:1 125:1 138:1 151:1 152:1 164:1 178:1 188:1 190:1 194:1 200:1 202:1 205:1 
1 0 1 0 0 1 0.2292758843008495 0 1 0 0 0 0 0 0 0.3990470381141997 1 1 1 0.4868309172648195 0 1 1 1 1 0 0.9436644876851703 0 0 1 0 1 0.9040264754452695 0 1 1 1 0 1 0.7500577045759718 0 0 1 1 1 0.8104881445416364 0.6517451886188675 0 59:1 60:1 70:1 74:1 113:1 138:1 139:1 164:1 188:1 193:1 200:1 205:1 207:1 
1 1 1 1 1 1 1 1 1 1 1 1 1 1 1 1 1 1 1 1 1 1 1 1 1 1 1 1 1 1 1 1 1 1 1 1 1 1 1 1 1 1 1 1 1 1 1 1 48:1 57:1 59:1 60:1 74:1 87:1 100:1 113:1 125:1 139:1 164:1 187:1 188:1 191:1 194:1 206:1 
0 0.1078249961745062 0 0 0.5631526941325946 0 0 0 0 1 0 0 0 0 0 0 0.7190931693146509 0 0 0 0 0 0 0 0 0 0 0 0 0 0 0 0.06756919248564017 0.1290279928957794 0 0 0 0 0 0.660844113400623 0 0 0.1287153068824386 0 0.02093727085183714 0 0.5673797223155277 0 47:1 71:1 72:1 74:1 100:1 113:1 138:1 139:1 164:1 165:1 187:1 188:1 190:1 193:1 194:1 201:1 202:1 205:1 
0 0 0 0 0 0 0 0 0 0 0 0 0 0 0 0 0 0 0 0 0 0 0 0 0 0 0 0 0 0 0 0 0 0 0 0 0 0 0 0 0 0 0.4532306225801456 0 0 0 0 1 48:1 59:1 60:1 61:1 72:1 87:1 99:1 112:1 113:1 125:1 139:1 151:1 165:1 188:1 193:1 200:1 202:1 205:1 207:1 
0 0 0 0 0 0 0 0 0 0 0 0 0 0 0 0.776941803500877 0 0 0 0 0 0 0 0 0 0 0 0 0 0 0 0 0 0 0 0 0 0 0 0 0 0 0 0 0 0 0 0 48:1 58:1 59:1 60:1 74:1 99:1 113:1 139:1 151:1 164:1 165:1 188:1 190:1 191:1 193:1 200:1 201:1 202:1 205:1 206:1 
1 1 1 1 1 1 1 1 1 1 1 1 1 1 1 1 1 1 1 1 1 1 1 1 1 1 1 1 1 1 1 1 1 1 1 1 1 1 1 1 1 1 1 1 1 1 1 1 4:1 5:1 11:1 48:1 57:1 59:1 61:1 70:1 74:1 79:1 86:1 112:1 114:1 118:1 125:1 150:1 164:1 174:1 178:1 186:1 189:1 192:1 193:1 201:1 203:1 204:1 206:1 209:1 
1 1 1 0.7997058596274749 1 1 1 1 1 1 0 0 1 0.7144980890104533 1 0.5739050398768679 1 0.04842814117673839 1 1 1 0.7613491621557763 1 0.2789437166629786 1 0 0 1 0 1 1 1 1 1 1 1 0 1 0.4780080512749369 0.9783307190406552 1 1 0.1821031428953511 1 0 0 1 1 46:1 47:1 48:1 58:1 61:1 87:1 99:1 112:1 113:1 139:1 151:1 165:1 190:1 193:1 202:1 205:1 207:1 
0 0.379371741328534 1 0 0 1 0.1219776413487097 0 0 0.4492741533323877 0.09422907506928718 0 0 1 0 0 0 0 0 0 0 0 0 0 0.1747280486700164 0.9395220746104596 0 0 0 0.5515780090352475 0 0 0 0 0.540178399400545 0 0 1 0 0 0 0.3451093902531328 0 1 0 0 0.6171634517937168 1 47:1 48:1 57:1 61:1 72:1 73:1 87:1 99:1 112:1 113:1 139:1 151:1 165:1 177:1 187:1 190:1 193:1 201:1 205:1 207:1 
1 0 0 0 1 1 0 1 0 0.8469460184857017 0 0 0 0 0 0 0 0.9492922792493005 1 0 0.5135530044110351 0 0.4691462745293175 1 0 0.3944406465385832 1 0.5268325436513978 0.4425452263894475 0 1 0.7266615902075773 1 0.7005383297972317 1 0.959831488521824 1 1 0.215843231947615 0.4304401669656495 1 0 0.5236898419454206 1 0 1 1 0 46:1 58:1 59:1 70:1 74:1 99:1 125:1 138:1 139:1 164:1 165:1 190:1 193:1 205:1 
1 1 0 1 0 1 1 1 1 0 1 0 0.1323018236627598 0 0 1 0 0 0 0 0 0 0 0 0 0 0.1671883731517797 0 0 0 0 0 0 0 0 0 0 0 0 0 0 0 0.320243366593931 0 0.8577609430923757 0 0 1 46:1 48:1 57:1 59:1 61:1 72:1 87:1 112:1 113:1 125:1 139:1 151:1 165:1 188:1 193:1 200:1 202:1 205:1 207:1 
0 0 0 0 0 0.09894930094148464 0 0 0 1 0 0.3091161003499082 0 0 0 0 0 0 0 0 0 0.2160777505291568 1 0.4485859475878167 1 1 0 0.03491799509571258 0.1111128899217876 1 0 0.3694239725807926 0 0 1 1 1 0.2473488370043844 1 0 0 0.6427572395257084 1 0.4333852597564448 0.7043360816225575 1 0 0 58:1 59:1 70:1 74:1 86:1 100:1 138:1 139:1 151:1 190:1 193:1 200:1 202:1 205:1 207:1 
0 0 0 0 0 0 0 0 0 0 0 0 0 0 0 0 0 0 0 0 0 0 0 0 0 0 0 0 0 0 0 0 0 0 0 0 0 0.8138090778863086 0 0 0 0 0 0 0 0 0 0 46:1 47:1 48:1 58:1 72:1 73:1 74:1 99:1 125:1 138:1 152:1 164:1 178:1 190:1 193:1 201:1 203:1 204:1 205:1 207:1 
1 1 0 0.06540340108500628 0 1 0 0.5620610234931276 0 1 0.2102785665676359 0 0 0 0 0 0 1 0 0 0 0 0 0 0 0 0 0 0 0 0 0 0 0 0 0 1 0 0 0 0 0 0 0 0 0 0 0.6843160589922732 58:1 59:1 60:1 61:1 99:1 125:1 126:1 138:1 152:1 164:1 178:1 188:1 190:1 193:1 200:1 202:1 205:1 
0 1 1 0.3447932957553268 0 0 0 0 0 0.3598576440751483 1 1 0 0.388471269923918 0.3709503724439882 0 0 0 1 0 0.9530994527984121 0 0 0.3335124508747862 0 1 0 0.7332592531630934 0 1 0 0 0 0.8509993816948682 0 0.7144282395678901 1 0 0.6213682476337404 0 0.4309904080877739 0 0 0 0 0 0.7949756208053124 1 59:1 60:1 71:1 74:1 86:1 99:1 100:1 139:1 152:1 164:1 178:1 187:1 190:1 194:1 201:1 202:1 205:1 
0 0 0 0 0 0 0 0 0 0 0 0 0 0 0 0 0 0 0 0 0 0 0 0 0 0 1 0 0.1895724967050263 0 0 0 0 0 0 0 1 1 0 0 0 0 0 1 0.89157881881193 0 0 0 47:1 57:1 59:1 72:1 73:1 74:1 99:1 100:1 125:1 138:1 139:1 152:1 164:1 178:1 187:1 194:1 202:1 205:1 
0 0 0 0 0 0 0 0 0 0 0 0 0 0 0 0 0 0 0 0 0 0 0 0 0 0 0 0 0 0 0 0 0 0 0 0 0 1 0 0 0 0 0 0 0 0 0 0 47:1 57:1 58:1 60:1 72:1 74:1 86:1 99:1 100:1 113:1 138:1 139:1 164:1 190:1 201:1 202:1 205:1 207:1 
1 0.3412891076919015 0 1 1 1 1 1 0.6769822643458409 0.3918602736563706 0.2934113126449709 1 1 1 0 1 0 1 0.317916414626058 1 0 0.4320467968446399 0.8967655031758032 0.2499383971057615 0.4030057342371567 0.190995077290084 1 0 0.2105738094136668 0.4257285385238742 0.8435597900106502 0.07810306536652944 0.7747138836456215 0 0.9042045840015941 0 1 1 1 0.5416340831346932 1 0.03694673769291489 0 0.7408353374141075 0 1 0 1 45:1 47:1 48:1 57:1 59:1 70:1 71:1 87:1 125:1 151:1 152:1 177:1 178:1 189:1 193:1 200:1 202:1 204:1 205:1 207:1 247:1 
0.8777255182693084 0 0 0 0 0 0 0 0 0 0 0 0 0 0 0 0 0 0 0 0 0 0 0 0 0 0 0 0 0 0 0 0 0 0 0 0 0 0 0 0 0 0 0 0 0 0 0 58:1 60:1 74:1 99:1 125:1 138:1 152:1 164:1 178:1 188:1 190:1 193:1 201:1 203:1 204:1 205:1 207:1 
1 1 1 1 0 1 0.665761958683575 0.9728212733868645 1 1 1 1 1 0.8546019312886965 1 1 0.9508827961148275 1 1 1 0.2382770272078915 1 1 1 1 1 1 1 0.7072363596425636 1 1 1 1 1 1 1 1 0 1 1 1 1 0.7612421520687493 1 1 1 1 1 59:1 60:1 61:1 70:1 100:1 138:1 152:1 164:1 178:1 188:1 194:1 200:1 205:1 
0 0 1 0 0.341656945661547 1 0.4247396378002141 0 1 1 0 0.5432870536920114 1 0 0.7034950535015885 0 1 0 0 0.7439546035113935 0 0.01059499063933929 1 0.9169371818265232 1 0 1 0.7809973554154371 1 1 0.6333456804256438 0 0.7845273787333865 0.3407448936660801 0 0.9039566181356683 0 1 1 0 0.9474771531230246 1 0 1 0 1 1 1 48:1 57:1 61:1 71:1 72:1 87:1 99:1 112:1 113:1 139:1 151:1 165:1 177:1 193:1 202:1 203:1 205:1 207:1 
0 1 1 1 0 1 0.6459262704567142 0 0.8857566756952912 1 1 0 0.455390640077174 0 1 0 1 0 0.03162586204230814 0 0.2930067572984938 0 0 0 1 0.1984433115316815 0.1304880472135845 0 0.4702795268591733 0 0 0 0 0.4389430519608044 0.006600066337031623 0 1 1 0.4847341252649008 0 1 1 0 1 1 0.2915736374277857 1 1 58:1 59:1 60:1 74:1 99:1 100:1 112:1 139:1 151:1 152:1 165:1 177:1 187:1 189:1 191:1 202:1 205:1 207:1 
1 1 1 0 0 1 0.2566456016992016 1 1 0 1 0 1 0 0 0.7869455452085277 0 1 1 0 0 0 0.3260883963999702 0.4666567391642631 0 0 1 0 0 0.2431758725300849 0 0.5156336661351443 0 0 0 0.8277651761613085 0 1 0 0 1 0 0 1 1 1 0 1 58:1 59:1 60:1 61:1 99:1 100:1 125:1 138:1 152:1 164:1 178:1 190:1 194:1 205:1 
0 0 0 0.4703511189279602 0 0 0 0 0 0 0 0 0 0 0 0 0 0 0 0 0 0 0 0 0 0 0 0 0 0 0 0 0 0 0 0 1 0 0 0 0 0 0 0 0 0 1 0 58:1 59:1 60:1 74:1 99:1 139:1 151:1 152:1 164:1 165:1 188:1 190:1 191:1 200:1 201:1 202:1 205:1 207:1 
1 1 1 1 1 1 1 1 1 1 1 1 1 1 1 1 1 1 1 1 1 1 1 1 1 1 1 1 1 1 1 1 1 1 1 1 1 1 1 1 1 1 1 1 1 1 1 1 6:1 39:1 46:1 57:1 61:1 72:1 112:1 138:1 139:1 165:1 177:1 186:1 188:1 191:1 193:1 200:1 201:1 203:1 207:1 
0 0 0.02057790088474182 0 0 1 0 0.1989406284415505 0.06020304289961183 0 0.2300331187990846 0 0 0 0 0 0 0 0.7589225526686521 0 0 0 0 0 0.2699823124277305 0 0 0 0 0 0 0 0 0 0.6032046442568797 0 0.7038392135354214 0 0 0 0 0.03961563576077962 0 0.1773668678741158 0 0 0 1 46:1 48:1 57:1 58:1 59:1 73:1 74:1 79:1 92:1 93:1 99:1 100:1 131:1 138:1 139:1 152:1 157:1 170:1 178:1 189:1 193:1 201:1 205:1 207:1 
0 0 0 0 0 0 0 0 0 0 0 0 0 0 0 0 0.2320584237475244 0 0 0 0 0 0 0 0 0 0 0 0 0 0 0 0 0 0 0 0 0.4360678114151175 0 0 0 0 0 1 0.1101011795307863 0 0 0 46:1 58:1 72:1 73:1 74:1 99:1 125:1 138:1 151:1 152:1 178:1 188:1 193:1 203:1 204:1 205:1 207:1 
0 0 0.1818140968644998 0 0 0 0 0 0 0 0 0 0 0 0 0 0.3240723584269715 0 0 0 0 0 0 0 0 0 0 0 0 0 0 0 0 0 0 0 0 0 0 0 0 0 0.06176867391146457 0 0 0 0 0 58:1 72:1 73:1 74:1 99:1 138:1 152:1 164:1 178:1 188:1 193:1 203:1 204:1 205:1 207:1 
0 0 0 0 0 0.2853883504771041 0 0 0 0 0 0 0 0 0 0 0 0 0 0 0 0 0 0 0 0 0 0 0 0 0 0 0 0 0 0 0.9181001680888932 0 0 0 0 0 0 0 0 0 0 0 48:1 58:1 59:1 60:1 74:1 99:1 139:1 151:1 152:1 164:1 165:1 188:1 190:1 191:1 200:1 201:1 202:1 205:1 207:1 
0 0 1 0 0 0 0 0 1 0 0 0 0 0 0 0 0 0 0 0 0 0 0 0 0 0 0 0 0 0 0 0 0 0 0 0 0 1 0 0 0 0 0 0 0 0.8372802493394919 0 0 47:1 48:1 57:1 61:1 72:1 73:1 87:1 99:1 113:1 125:1 139:1 151:1 164:1 165:1 190:1 193:1 205:1 207:1 
0 0 0 0 0 0 0 0 0 0 0 0 0 0 0 0.6748106560852581 0 0 0 0 0 0 0 0 0 0 0 0 0 0 0 0 0 0 0 0 0 0 0 0 0 0 0 0 0 0 0 0 48:1 57:1 59:1 60:1 74:1 99:1 100:1 113:1 125:1 138:1 139:1 164:1 178:1 190:1 205:1 206:1 207:1 
0 0 0 0 0 0 0 0 0 1 0 0 0 0 0 0 0 0 0.8124288143428942 0.6605864537464646 0 0 0 0 0.6755034090159485 0 0 0 0 0 0 0 0 0 0 0 0 0 0 0 0.9845567661451007 0 0 0 0 1 0 0 46:1 58:1 60:1 70:1 74:1 99:1 100:1 138:1 152:1 164:1 178:1 188:1 190:1 193:1 205:1 
1 1 1 1 1 1 1 1 1 1 1 1 1 1 1 1 1 1 1 1 1 1 1 1 1 1 1 1 1 1 1 1 1 1 1 1 1 1 1 1 1 1 1 1 1 1 1 1 58:1 59:1 61:1 70:1 86:1 126:1 152:1 164:1 178:1 190:1 193:1 205:1 
0.3299363796503866 0 0 0 0 0 0 0 0 0 0 0 0 0 0 1 0 0 0 0 0 0 0 0 0 0 0 0 0 0 0 0 0 0 0 0 0 0 0 0 0 0 0 0 0 0 0 0.3282860624796889 48:1 58:1 59:1 60:1 74:1 99:1 113:1 139:1 151:1 164:1 165:1 188:1 190:1 191:1 193:1 200:1 201:1 202:1 205:1 206:1 
0 0 0 0 1 0 0 0 0 0 0 0 0.1828492157038593 0 0 0 0 0 0 1 0 0 0 0 0 0 0 0 0 0 0 0 1 0 0 0 0 0 0 0 0 0 0 0 0 0 0 0 58:1 60:1 72:1 74:1 99:1 125:1 151:1 152:1 178:1 188:1 190:1 193:1 203:1 204:1 205:1 207:1 
0 0 1 0 0 0 0 0 1 0 0 0 1 0 0 0 0 0 0 1 0 0 0 0 0.56095817885314 0.3246503532774787 0 0 0 0 0 0 0 0 0 0 0 0 0 0 0.3814464684546194 0 0 0 0 0 0 0 58:1 60:1 72:1 73:1 74:1 99:1 151:1 152:1 178:1 190:1 193:1 201:1 204:1 205:1 207:1 
1 0.8154675182794812 1 1 1 1 0.5645923375246624 1 1 1 1 1 1 0 0.6186950056232129 0.8942635872111724 1 1 1 0.4987578116192145 0.441308765660177 1 1 1 1 0 0.736005019481408 1 1 1 0.03515092619842183 1 0.4351228695147985 0.6549763674156005 1 1 0 1 1 1 0 1 1 1 1 0 1 1 47:1 48:1 57:1 61:1 72:1 73:1 87:1 99:1 125:1 126:1 151:1 152:1 188:1 193:1 194:1 200:1 202:1 205:1 
0 0 0 0 0 0 0 0 0 0 0 0 0 0 0 0 0 0 0 0 0 0 0 0 0 0 0 0 0 0 0 0 0 0 0 0 0 0 0 0 0 0 0.05021298660401554 0 0 0 0 0 58:1 60:1 71:1 72:1 74:1 86:1 99:1 100:1 125:1 138:1 152:1 164:1 178:1 187:1 188:1 190:1 193:1 201:1 202:1 205:1 
0 0 1 0 0 0 0 0 1 0.8344055328532379 0 0 1 0.04189412991124734 0 0 0 0 0 1 0 0 0 0.09549741626074115 1 0.7784088734486101 0 0 0 0 0 0 0.692559110798581 0 0 0.02584891000612599 0 0 0 0 0.9653974683054501 0 0 0 0 0 0 0 58:1 60:1 72:1 73:1 74:1 99:1 151:1 152:1 178:1 190:1 193:1 201:1 204:1 205:1 207:1 
0.246330716186791 1 0 0.3167357038089066 0 1 0 1 0 0 0.5167743569971931 1 0 0.4322412553114582 0 0 0 0 1 0 0 0 0 0.900493247918462 0.9544043646026723 0 0.09062313512945425 0 0 0 1 0 0 0 0 0 0 0 0.6366179071809085 0.2252376627421272 0 0 1 0 0 0 0.2592938248346889 0 33:1 46:1 57:1 58:1 61:1 71:1 86:1 100:1 151:1 152:1 164:1 178:1 188:1 190:1 193:1 200:1 201:1 202:1 204:1 207:1 
0 0 0 0 0 0 0 0 0 0 0 0 0 0 0 0 0 0 0 0 0 0 0 0 0 0 0 0 0 0 0 0 0 0 0 0 0 0 0 0 0 0.1707440070619737 0 0 0 0 0 0 58:1 72:1 73:1 74:1 99:1 125:1 151:1 152:1 178:1 188:1 190:1 193:1 201:1 203:1 204:1 205:1 207:1 
1 0 0 1 0 0 0 0 0 0 0.5827317616192165 1 0 0 0 1 0 1 1 0 0 0 0.5061517751918243 0 1 0 0 0 0 0 0 0.07593282206091012 0 0 0.9384712521983183 0 0 0 0 0 0 0 0 0 0 0 0 1 44:1 46:1 47:1 48:1 57:1 61:1 70:1 73:1 87:1 99:1 112:1 113:1 125:1 139:1 151:1 165:1 188:1 193:1 200:1 202:1 205:1 207:1 
1 1 0 0 1 0 0 0.9814970080751689 0 0 0.05916849458297744 0 0 0.2634757524299461 0 0 1 0 0 0 0 0 0 0 0 0 0 0 0 0 0 0 0 0 0 0 0.1183040279724747 0 0 1 0 1 0 0 0 0 1 0.7056893291428735 58:1 60:1 74:1 99:1 125:1 151:1 152:1 178:1 188:1 190:1 193:1 201:1 203:1 204:1 205:1 207:1 
1 1 1 0 0 1 1 1 0 0 1 0 0.4566403092737574 0.8583795016282686 0.2204787529607786 0 1 0.5445175424982929 0 1 0.1403710575739925 0 0.2526432207554475 0 0 1 0 0 0 0.2675215389690399 0 0.5756064074834413 0 0.3838468267041596 0 0 0.5724157922508957 0.02693725967799185 1 1 0 0.379294753944132 0.2063104571871463 0.7154014799791348 1 1 1 1 57:1 60:1 73:1 74:1 100:1 126:1 138:1 139:1 164:1 190:1 193:1 194:1 202:1 204:1 205:1 
1 1 0 1 1 1 0.9411500236887964 1 1 0 0.498457556431784 1 0 1 1 1 1 0 0 0 1 0 0 1 0 1 0 0 0 0 0.6268815220286679 0 0.005471469133555659 1 0 0 1 0 1 0.5512088716755298 0 1 0.9414816412978863 0.7043400370947229 1 1 1 0 47:1 71:1 72:1 74:1 100:1 113:1 138:1 139:1 164:1 187:1 188:1 190:1 201:1 202:1 205:1 207:1 
1 0 0 0 1 0 0 0 0.392801534222678 1 0 0 0.9403760052936734 0.3807675505117801 0.3952350915838487 0 0 0 0 0 1 0 0 0.3258386244183505 0 1 0.2786910904118539 0 0 0 0.341722541615687 0 0.6106152648473324 0.5872716322452969 0 0 0 0 0.4606318563330036 1 0.1850422364959854 0 1 0 1 0.4651676918244221 0 0 47:1 48:1 71:1 72:1 100:1 138:1 152:1 164:1 178:1 187:1 188:1 190:1 193:1 201:1 202:1 205:1 207:1 
1 1 1 0 0.1003140142025052 0 0.3870502200124504 0 0 0.1653101394497111 1 0 1 0 0.7078214688979289 1 0 0 0 1 0 0 0 0 1 0 1 0 0 0.9265963605458166 0.8621066455848381 0 0.946960747125335 0 0 0 1 1 0 0 0.9629516367442038 0 1 1 0.07560828764489386 1 0 0 58:1 59:1 60:1 70:1 74:1 86:1 100:1 125:1 138:1 152:1 164:1 190:1 191:1 193:1 205:1 
0 0 0 0 0 0 0 0 0 0 0 0 0 0 0 0 0 0 0 0 0 0 0 0 0 0 0.3950397008032451 0 0.1098280321401406 0 0 0 0 0 0 0 0 0 0 0 0 0 0 0 0 0 0 0 58:1 60:1 71:1 72:1 74:1 99:1 125:1 138:1 151:1 152:1 178:1 188:1 193:1 203:1 204:1 205:1 207:1 
1 1 0 0.7620213261184591 0 1 0 0 0 1 0 0 1 1 0 0.1536816990527506 0 1 1 0 0 0 0 0 0 0 0.05493988618804118 0 0 0 0 1 0 0 0.5986084204039747 0 0.477869898080787 1 0 0 0 0 0 0 0 0 0 1 47:1 57:1 58:1 60:1 61:1 72:1 86:1 99:1 126:1 138:1 152:1 164:1 178:1 190:1 193:1 201:1 202:1 205:1 
1 1 0.5556715198006626 1 1 0.5362351405340275 0.4892128192269618 0.7923271062087317 0 0 0.5096453391871032 0.8201205781076811 0 1 0.5525055165756055 1 0 0.8679981917197949 0 0.1496448032085077 0.2654937870391216 1 0.1141605340414264 1 0.3540999324187795 1 1 0.09642369397866613 1 0 0 1 0.1425538463292494 0.3207901082715388 1 0 1 0.107450378501622 1 0.8450032910262998 1 1 1 1 1 1 1 0.1405366881683992 42:1 46:1 47:1 56:1 58:1 70:1 73:1 74:1 80:1 94:1 107:1 113:1 125:1 132:1 139:1 152:1 164:1 170:1 178:1 187:1 189:1 193:1 201:1 205:1 207:1 
0 0 0 1 0 1 0 0 0 0 0 0 0 0 0 0 0 0 0 0 0 0 0 0 0 0 0 0 0 0 0 0 0 0 0 0 0 0 0 0 0 0 0 0 0 0 0 0 48:1 58:1 59:1 60:1 99:1 100:1 139:1 151:1 152:1 164:1 165:1 188:1 190:1 191:1 200:1 201:1 202:1 205:1 207:1 
0 0 0 0 0 0 0 0 0 1 0 0 0 0 0 1 0.6072565203493679 0 0 0 0 0 0 0 0 0 0 0 0 0 0 0 0 0 0 0 0.02980807537662968 0 0 0 0 0.2011264543424462 0 0 0 0 0 0 58:1 59:1 60:1 74:1 99:1 100:1 113:1 126:1 139:1 151:1 152:1 164:1 188:1 190:1 191:1 194:1 200:1 201:1 202:1 205:1 206:1 
0 0 0 0 0 0 0 0 0 0 0 0 0 0 0 0 0 0 0 0 0 0 0 0 0 0 0 0 0 0 0 0 0 0 0 0 0 1 0 0 0 0 0 0 0 0 0 0 58:1 60:1 74:1 99:1 125:1 138:1 152:1 164:1 178:1 190:1 193:1 203:1 204:1 205:1 207:1 
0 0 0 0 0 0 0 0 0 1 0 0.5800067353548847 0 1 0.2512387986648733 0 0 0 0 0 0.6705483160474403 0 1 1 1 1 0.5407007928273773 0.1131102087519969 1 0.5449295077833207 0 0 0 1 0.2899717324382509 1 0 0.06073634153209965 1 1 1 0 0 1 0 0 0.405350310359095 0 57:1 58:1 72:1 73:1 74:1 99:1 151:1 152:1 178:1 190:1 193:1 201:1 204:1 205:1 207:1 
1 1 1 1 1 1 1 1 1 1 1 1 1 1 1 1 1 1 1 1 1 1 1 1 1 1 1 1 0.08343981172129532 1 1 1 1 1 1 1 1 1 1 1 1 1 1 1 1 1 1 1 59:1 73:1 74:1 100:1 138:1 151:1 152:1 165:1 188:1 190:1 192:1 200:1 204:1 206:1 
1 0.6145312348768482 0 0 0 0 0 0 0 1 0 1 0.05485195506293131 0 1 1 1 0 1 0 1 0 0 0.4072298234696768 0 1 0 1 0 1 0 0 0 1 0.1064357551564667 0.4246378974384293 1 0 0 0 0 0 0 0 1 0 0 0 58:1 60:1 61:1 86:1 99:1 113:1 139:1 151:1 178:1 188:1 190:1 193:1 200:1 201:1 205:1 206:1 207:1 
0 0 0 0 0 0 0 0 0 1 0 0 0 0 0.7538884030816442 0 1 0 0 0 0.1939872663942367 0 0 0 0 0 0 0 0 0 0 0 0 0 0 0 0 0 0 0.6056749817930228 0 0 0.3981835225912683 0 0 0 0 0 58:1 72:1 74:1 99:1 125:1 151:1 152:1 178:1 188:1 190:1 193:1 202:1 204:1 205:1 207:1 
1 0 0 0 1 0 1 0 0 0 0.3048639894752884 0 1 0 0 0 0 0 0.4498689660825866 1 0 0 0 0 0 0 0 0 0 0 0 0 0 0 1 0 0 0 0 0 0 0 0 0 0 0 0 1 48:1 58:1 59:1 60:1 61:1 72:1 87:1 112:1 113:1 138:1 139:1 165:1 188:1 193:1 200:1 202:1 203:1 205:1 207:1 
0 1 0 1 0 1 1 1 0.655517922650132 0 1 0 0 1 0 1 1 1 0 0 0 0 0 0 0 0 0 0 0 0 0 0.8637637933354627 0 0 0.67029795878911 0 1 1 0 0 0 1 0 0 0 0.1642026380890198 0 0.397812488849516 47:1 57:1 59:1 60:1 71:1 74:1 86:1 100:1 113:1 138:1 139:1 151:1 190:1 201:1 202:1 205:1 207:1 
0 0 0 0 0 0 0 0 0.3321205164477455 0 0 0 0 0 0 0 0 0 0.1284816291826683 0.1128978517526485 0 0 0 0.2351181541408567 0 0 0 0 0.6585501492355708 0 0 0 0 0 0 0 0 0 0 0 0 0 1 0.2900197475030201 1 0 0 0 46:1 58:1 72:1 73:1 74:1 99:1 125:1 151:1 152:1 178:1 188:1 193:1 201:1 204:1 205:1 207:1 
1 1 0 1 1 1 1 0.8303143878317214 0 1 1 1 1 0.6005644860524337 1 1 1 1 1 1 1 0.6826023027520682 1 1 0 1 0 0.6868590944915265 1 0.7080050275714204 1 1 1 1 0.9771649000636017 1 1 1 1 0.4700872415298388 1 1 0 0 1 1 1 1 58:1 60:1 74:1 99:1 112:1 126:1 138:1 152:1 177:1 178:1 186:1 188:1 189:1 190:1 191:1 194:1 200:1 203:1 205:1 
0.3269585728145134 0 0 0 0 0 0 0 0 0 0 0 0 0 0 0 0 0 0 0 0 0 0 0 0 0 0 0 0 0 0 0 0 0 0 0 0 0 0 0 0 0 0 0 0 0 0 0 58:1 60:1 72:1 74:1 99:1 125:1 151:1 152:1 178:1 188:1 190:1 193:1 201:1 204:1 205:1 207:1 
0 0 0 0 0 0 0 0 0 1 0 0 0 0 0 0 0 0 0 0 0 0 0 0 0 0 0 0 0 0 0 0 0 0 0 0 0 1 0 0 0 0 0 0 0 0.04217809075200242 0 0 59:1 60:1 61:1 86:1 99:1 100:1 125:1 138:1 151:1 152:1 164:1 178:1 188:1 190:1 194:1 200:1 202:1 205:1 
0 0 0 0 1 0 0 0 0 0 0 0.4211335625295085 1 0 1 0 1 0 0 0.6925044978730469 0.6519570523609975 0 0 0 0 0.7904404198785648 0 0.424714825865857 0 0 1 0 0.8262901171109347 0.9023500666674151 0 0 0 0 0 0 0 0.5754727711138058 0 0 1 0 0 0 47:1 48:1 71:1 72:1 74:1 99:1 100:1 113:1 138:1 139:1 164:1 187:1 188:1 190:1 194:1 202:1 205:1 206:1 
0 0 0 0 0 0 0 0 0 0 0 0 0 0 0 0 0 0 0 0 0 0 0 0 1 0 0.08607006203628086 0 0 0 0 0 0 0 0 0 1 0.7639681274917013 0 0 0 0 0 1 0.6266171954964176 1 0 0 46:1 58:1 59:1 70:1 74:1 99:1 100:1 125:1 138:1 152:1 164:1 178:1 190:1 193:1 205:1 
0.8608980560900874 0 0 0 0.6660031453721361 0.7162689856628325 0 0 0.420288433749945 0 0 0 0 0 0 0 0 0 0 0 0 0 0 0 0 0 0 0 0 0 0 0 0 0 0 0 0 0 0 0 0 0 1 0 0 0 0 0 47:1 48:1 71:1 72:1 74:1 100:1 138:1 139:1 164:1 187:1 188:1 190:1 193:1 201:1 202:1 205:1 207:1 
0 0 0 0 0.3552913966528313 0 0 0 0 0 0 0 0 0 0 0 0 0 0 0 0 0 0 0 0 0 0 0 0 0 0 0 0.06441461440167082 0 0 0 0 0 0 0 0 0 0 0 0 0 0 0 58:1 60:1 71:1 72:1 74:1 99:1 125:1 151:1 152:1 178:1 188:1 190:1 193:1 201:1 203:1 204:1 205:1 207:1 
1 0.6517509777951859 1 1 1 0.7124220376062386 1 1 1 0.1099684344856307 1 1 1 0 0.6198159837336499 1 0 1 1 0.3877485474665247 0.3473922846049175 1 1 1 0 1 1 1 0.8460473713576787 1 0.1364011939254102 1 1 0.349480567474928 1 1 1 1 0.534422067171428 0.9046378498263653 1 0 1 1 1 1 0 1 57:1 59:1 60:1 71:1 74:1 86:1 125:1 138:1 164:1 178:1 190:1 193:1 205:1 
1 1 1 0.8887675643407926 1 1 0 1 1 1 0 0 1 1 0.4739083411329965 1 0 1 1 1 0.7031513284071195 1 1 1 1 1 1 1 1 1 1 1 1 1 1 1 1 1 1 0 1 1 1 1 1 1 1 0 47:1 61:1 71:1 72:1 125:1 138:1 152:1 164:1 190:1 200:1 205:1 206:1 207:1 
0 0 0.3904780147367022 0 0.7321374268460014 1 0 1 1 0 0.2974379951515694 1 1 0 1 0 1 0 0.9965506186762818 1 1 1 1 1 0.8765128788939976 1 1 1 1 1 1 0 1 1 0.009595825310181641 1 1 0.193443069569476 0.1750982859827214 1 1 0 0 0.8124975473599101 1 0 1 0 58:1 71:1 72:1 74:1 99:1 139:1 177:1 178:1 190:1 193:1 204:1 205:1 207:1 
0 0 0 0 0.7526606485794576 0 0.0676502672028334 0 0.01364372705094623 0.7346925380127054 0 0.2629189774453958 0 0.3668393515634448 1 0 0 0 1 0 1 0 0 0 0.01579395865923868 0.6915252114396716 1 0.3042430123821893 0 0.5997591815990024 0.55332408562906 0 0 1 0 0.1540520943393233 0 0 0 0 0 0 1 0.1540939250564213 0 0 0 1 48:1 59:1 60:1 71:1 86:1 99:1 100:1 152:1 164:1 178:1 187:1 190:1 193:1 201:1 202:1 205:1 207:1 
1 0 0 0 0 0 0.5053510438345385 0 0 0 0 0 0.4447731990196494 0 0 1 0 0 0 0 0 0 0 0 0 0 0 0 0 0 0 0 0 0 0 0 0 0 0 0 0 0 0 0 0 0 0 1 48:1 58:1 59:1 60:1 74:1 99:1 113:1 139:1 151:1 164:1 165:1 188:1 190:1 191:1 193:1 200:1 201:1 202:1 205:1 206:1 
0 0 0 0 0 0 0 0 0 0 0 0 0 0 0 0 0 0 0 0 0 0 0 0 0 0 0 0 0 0 0 0 0 0 0 0 0 0 0 0 0 0 0 0 0.4571883333190472 0 0 0 58:1 59:1 60:1 74:1 100:1 113:1 138:1 139:1 151:1 164:1 178:1 188:1 190:1 193:1 204:1 205:1 207:1 
1 0 0 0 0 0 0 0 0 1 0.3771821841621687 0 0 0 1 0 0 0 1 0 0.9030756504292714 0 1 1 1 0.2604157620023368 0 1 0.4339166322897761 1 0 0 0 1 0.4887494382530296 1 0 0 0.03862206899337976 0 0 0 1 1 1 0 0 1 58:1 60:1 74:1 86:1 99:1 100:1 139:1 151:1 188:1 190:1 193:1 200:1 201:1 205:1 207:1 
1 0 0 1 1 0 1 1 0 0.1924677298763835 1 0 0.3157900780002348 0.5095130667575413 0 1 0 1 1 0 0 0.5431676724625349 0 1 1 0.8732934603778577 1 0 1 0 1 1 0.2607229935128808 0 1 0.1873209058134365 1 0.6151605404257037 1 0.9104100209804532 1 0 0 0.1011125227541262 0 0 0 0.02249576109528929 45:1 47:1 57:1 59:1 70:1 71:1 74:1 125:1 152:1 165:1 177:1 188:1 191:1 193:1 200:1 202:1 205:1 207:1 
0 1 1 1 0 1 1 1 0 1 1 1 1 0 1 1 1 0.9533445790250042 1 0 0.6727278128995984 0.9592728213313024 1 1 0.9477411220365372 0.9900406947686591 1 1 1 1 0 1 0 0.3662429454222886 0 1 0.2655566712298797 1 1 0.8255648053511541 1 0.3112384560176126 1 1 1 1 0.936390905043365 0.4759108251785314 57:1 61:1 71:1 72:1 99:1 100:1 112:1 113:1 138:1 139:1 164:1 178:1 188:1 200:1 202:1 204:1 206:1 
0 0 0 0 0 0 0 0 0.1316998112276373 0 0 0 0 0 0 0 0 0 0 0 0 0 0 0 0 0 0 0 0 0 0 0 0 0 0 0 0 0 0 0 0 0 0 0 0 0 0 0 48:1 57:1 59:1 60:1 71:1 74:1 86:1 100:1 125:1 138:1 152:1 164:1 178:1 190:1 193:1 205:1 206:1 207:1 
1 0.8826114164673023 0 1 0.1934469103206303 1 1 1 0 0 1 0.5183961947522817 1 1 0.1065473351700659 0.8886175993313674 1 0 1 1 0 0 0 0 0 0.9939014783142435 0 0 0 0 1 0 0.1148387123825745 0 0.1475186778992341 0 0 1 1 1 0 0 1 0 0 0.06043448416373871 0.7742413559452561 1 57:1 59:1 60:1 61:1 86:1 138:1 139:1 164:1 188:1 190:1 193:1 202:1 205:1 207:1 
0 0 0 0 0 0 0 0 0 0 0 0 0 0 0 0 0 0 0 0 0 0 0 0 0 0 0 0 0 0 0 0 0 0 0 0 1 0 0 0 0 0 0 0 1 0 0 0 59:1 60:1 70:1 74:1 100:1 125:1 139:1 151:1 152:1 164:1 178:1 188:1 190:1 194:1 200:1 202:1 205:1 
1 1 1 1 1 1 1 1 1 1 1 1 1 1 1 1 1 1 1 1 1 1 1 1 1 1 0 1 0.5038652139096469 1 1 1 1 1 0.9377454123141882 1 1 1 1 1 1 1 1 1 1 1 1 1 48:1 57:1 60:1 70:1 73:1 100:1 138:1 165:1 177:1 188:1 189:1 192:1 203:1 205:1 207:1 
0 0 0 0 0 0 0 0 0 0 0 0 0 0 0 0 0 0 0 0 0 0 0 0 0 0 0 0 0 0 0 0 0 0 0 0 0 0 0 0 0 0 0.22765845384224 0 0 0 0 0 47:1 48:1 57:1 61:1 72:1 73:1 87:1 99:1 112:1 113:1 125:1 139:1 151:1 165:1 188:1 193:1 200:1 202:1 205:1 207:1 
0 0 0 0 0 0 0 0 0 0 0 0 0 0 0 0 0.3900374911280748 0 0 0 0 0 0 0 0 0 0 0 0 0 0 0 0 0 0 0 0 0.4652938433659269 0 0 0 0 0 0 0 0 0 0 58:1 72:1 73:1 74:1 99:1 125:1 151:1 152:1 178:1 188:1 190:1 193:1 203:1 204:1 205:1 207:1 
0 0 0.9048773327221573 1 0 0.8120916799412738 0 1 0.3219458425686068 0.05230139597720244 0 0 0.1331783632768572 0 0 1 1 1 1 0 0 1 1 1 0 0.4396391944505811 0.624654487284473 1 1 1 0 1 0 0 0 1 1 1 1 0 1 1 0 1 0 1 1 0 47:1 59:1 70:1 73:1 74:1 99:1 125:1 138:1 139:1 152:1 164:1 190:1 194:1 205:1 
1 1 1 1 1 1 1 1 1 1 1 1 1 1 1 1 1 1 1 1 1 1 1 1 1 1 0.7672581775634469 1 1 1 1 1 0 1 1 1 1 1 1 1 1 1 1 1 1 1 0.8670479035950966 1 48:1 59:1 60:1 70:1 74:1 99:1 100:1 125:1 151:1 153:1 165:1 177:1 187:1 188:1 191:1 204:1 206:1 207:1 
1 1 1 1 1 1 1 1 1 1 1 1 1 1 1 1 1 0 0.2541221534384114 1 1 1 1 1 1 1 1 0.1296061829002309 1 1 1 0 1 1 0 1 1 1 1 1 1 1 1 1 1 1 1 1 60:1 74:1 99:1 112:1 125:1 152:1 164:1 178:1 188:1 190:1 192:1 193:1 202:1 204:1 
-1 0 0 0.362618446691196 0 0 0 0.7362107674633673 0 0.8654731099445061 0 0.1422914513821245 0 0 0 0.9680711101553809 0.5848882550223808 1 0 0 0 0.3178184056919135 0 1 0 0 0.1108444462306951 0 0.121800745428001 0 0 0.3960737218324075 0 0 0.1063833970543613 0 0.8815457660967055 1 0 0.7927288693575278 0 0 0.490574303970002 0.9909825104132147 1 0.225985441933341 0 1 44:1 45:1 57:1 60:1 89:1 114:1 125:1 126:1 137:1 138:1 162:1 173:1 188:1 190:1 193:1 200:1 204:1 205:1 
-1 1 0.8790922598328816 0 0 0.4020198729134924 0 0 0 0 0.5454979594517663 0 0 0 0 0 0 1 0 0 0 0 1 0 0.1362315124942225 0 0 0 0 0.4118380847657707 0 0.2443893861215803 0 0 1 0 0 0 0.3826800976164103 0 0 0 0 0.5615527572644273 0 1 0 1 47:1 57:1 60:1 61:1 69:1 75:1 76:1 88:1 102:1 114:1 126:1 138:1 149:1 161:1 186:1 189:1 193:1 200:1 202:1 204:1 205:1 
-1 0 0 0 0 0 0 0 0 0 0 0.1629132299956392 0.5790215267293446 0 0 1 1 0.7430018006468927 0 1 0.2350140448169637 0 0 0 0 0 0 0 0 0 0 0 0.2687862139516369 0.4354862100215304 0 0 0.7621655980836406 0.1628310969622132 0 0 0 0.625931849303642 0 0 0 0.3053492205406019 1 1 44:1 48:1 60:1 69:1 89:1 113:1 125:1 126:1 137:1 162:1 173:1 188:1 189:1 190:1 193:1 200:1 205:1 
-0 1 0 0 0.9830004251246127 0 0 1 0 0 1 0 0.2081250019590727 0.4823791194241913 0 0.9622137948299128 0 0.7002056667274194 0 1 0 0 0 0 0 0 0 0 0 0 0.6984484974110321 1 1 0 1 0 0 0 0 0 0 0 0 0 0 0 0 0 44:1 46:1 47:1 58:1 60:1 61:1 69:1 75:1 76:1 89:1 102:1 114:1 125:1 126:1 148:1 186:1 189:1 193:1 200:1 203:1 204:1 205:1 
-1 1 0 1 0 1 0 1 0 0 1 0 1 1 0 1 0 1 1 1 0 0.0492595715104103 0 1 0.4420414041305092 1 0.7772004946983327 0 0.3417671971299958 0 1 1 0 0 1 0.3412450991826419 1 1 1 0.890779886239363 1 1 0 0 0 1 0.8107874875024447 0 44:1 47:1 48:1 58:1 61:1 69:1 76:1 89:1 125:1 137:1 138:1 189:1 190:1 192:1 200:1 201:1 
-0.07797450638446683 0 0 0 0 0 0 0.9916117385510228 0 0 0 0 0.1255989357150095 0 0 0 0 0 0 0 0 0 0 0 0 0 0 0 0 0 0.02010699505111065 0 0 0 0 0 0 0 0 0 1 1 0 0 0 0 0 0 47:1 61:1 75:1 76:1 89:1 102:1 114:1 125:1 126:1 137:1 149:1 162:1 176:1 186:1 188:1 190:1 193:1 200:1 202:1 205:1 
-1 1 0 1 1 0 1 1 0 0 1 1 1 1 1 1 1 1 1 1 1 1 1 1 0.9269997961830362 1 1 0 1 1 1 0.188477585883167 0 1 0 1 1 1 1 1 0 0 1 1 0 0 0 1 44:1 48:1 60:1 69:1 76:1 89:1 113:1 125:1 150:1 161:1 174:1 187:1 190:1 192:1 193:1 200:1 202:1 204:1 
-0 0 0 0 0 0 0 0 0 0 0 0 0 0 0 0 0 0 0 0 0 0 0 0 0.3111445366731868 0 0 0 0 0 0 1 0 0 1 0 0 0 0 0 0 0 0 0 0 0.8158913703311002 0 0 44:1 56:1 59:1 61:1 69:1 75:1 76:1 89:1 101:1 114:1 125:1 126:1 137:1 138:1 161:1 173:1 188:1 189:1 193:1 200:1 204:1 205:1 
-0 0 0 0 0 0 0 0 0 0 0 0 0 0 0 0 0 0 0 0 0 0 0 0 0 0 0 0 0 0 0 0 0 0 0 0 0 0 0 0 0 0 0 0 0 0 0 0.3120797452366266 47:1 57:1 60:1 61:1 69:1 75:1 76:1 88:1 102:1 114:1 125:1 126:1 137:1 161:1 162:1 173:1 188:1 189:1 190:1 193:1 199:1 200:1 204:1 205:1 
-0 0 0 0 0 0 0 1 0 0 0 0 0 0 0.238177178657615 1 0 0 0 0 0 0 0 0 0 0 0 0 0 0 0 0 0 0 0 0 0 0 0 1 0 0 0 0 0 0 0 0 47:1 61:1 75:1 76:1 89:1 102:1 114:1 125:1 126:1 173:1 174:1 188:1 189:1 190:1 193:1 199:1 201:1 203:1 204:1 205:1 
-0 0 0 0 0 0 0 0 0 0 0 0 0 0 0 0 0 0 0 0 0 0 0 0 0 0 0 0 0 0 0 0 0 0 0 0 0 0 0 0 0 0 0 0 0 0 0 1 44:1 45:1 48:1 54:1 58:1 60:1 68:1 69:1 75:1 76:1 79:1 89:1 93:1 94:1 106:1 120:1 125:1 126:1 137:1 146:1 161:1 162:1 173:1 185:1 186:1 188:1 189:1 190:1 192:1 193:1 197:1 199:1 205:1 
-0 0 0 0 0 0 0 0 0 0 0 0 0 0 0 0 0 0 0 0 0 0 0 0 0 0 0 0 0 0 0 0 0 0 0 0 0 0 0 0 0 0 0 0 0 0 0 0.3680714413229452 44:1 46:1 48:1 58:1 60:1 61:1 69:1 76:1 89:1 113:1 126:1 137:1 138:1 150:1 161:1 162:1 173:1 187:1 188:1 189:1 191:1 192:1 193:1 203:1 205:1 
-0 0 0 0 0 0 0 0 0 0 0 0 0 0 0 0 0 0 0 0 0 0 0 0 0 0 0 0 0 0 0 0.2282100278348552 0 0 0.6119575117565181 0 0 0 0 0 0 0 0 0 1 0 0 0 44:1 48:1 58:1 60:1 69:1 75:1 89:1 101:1 114:1 125:1 126:1 137:1 150:1 162:1 173:1 174:1 188:1 191:1 193:1 199:1 200:1 205:1 
-0 0 0.6239453229825436 0 0 1 0 0.8546780957868831 0 0 0 0 0 0 0 0 0 0 0 0 0 0 0.633218860726467 0 0 0 0 0 0 0 0 0 0 0 0 0 0 0 0 0 1 0 0 0.9189068419190174 0.4554291752906424 1 0 0 44:1 46:1 57:1 76:1 101:1 102:1 125:1 126:1 137:1 149:1 161:1 188:1 190:1 192:1 200:1 205:1 
-0 0 0 0 0 0 0 0 0.6207697270966996 0 0 0 0 0 0 0 0 0 0 0 0 0 0 0 0 0 0 0 0 0 0 0.3577380808296443 0 0 0.7264003789313633 0 0 0 0 0 0 0 0 0 0 0 0 0 44:1 46:1 48:1 60:1 69:1 75:1 89:1 101:1 114:1 125:1 126:1 150:1 161:1 173:1 186:1 190:1 193:1 199:1 200:1 202:1 205:1 
-1 0.3940195438879487 1 0 0.7964299375169767 1 0.9068618858067874 0 1 1 0.398359659580744 0 0.6645415418684488 1 1 0.260864692624176 1 0 0.2850780527479498 0.9218415195889706 1 0.2338650392657626 0 1 1 1 0.6464445605801284 0.8687200306872676 0 1 0 0 0 1 0 1 0.7073264719587999 0 1 0.9243848526741925 1 0.5915959530712654 1 0.8417928879530119 1 0.1068511467419816 1 1 60:1 75:1 89:1 114:1 126:1 138:1 149:1 161:1 186:1 190:1 193:1 199:1 201:1 202:1 204:1 205:1 254:1 
-1 1 1 1 1 1 1 1 1 1 1 1 1 1 1 1 1 0.1645999158237781 1 1 1 1 1 1 1 1 1 1 1 1 1 0.07441468528177107 1 1 0.874686366457075 1 1 1 1 1 1 0 1 1 1 1 1 1 46:1 57:1 60:1 61:1 101:1 114:1 161:1 162:1 186:1 187:1 189:1 190:1 193:1 202:1 204:1 205:1 
-0.8545498065599962 0 0 0 0 0 0 0 0 0 0 0 0 0 0 0 0 0 0 0 0 0 0 0 0 0 0 0 0 0 0 0 0 0 0 0 0 0 0 0 0 0 0 0 0 0 0 1 47:1 48:1 57:1 60:1 69:1 75:1 89:1 113:1 125:1 137:1 161:1 162:1 173:1 188:1 189:1 190:1 193:1 199:1 200:1 205:1 
-0 0.6709757851792901 0 0 0 0 0 0 0 0 0 0 0 0 0 0 0 1 0 0 0 0 0 0 0 0 0.1362648599404941 0 0 0 0 0.5663892990171713 0 0 0 0 1 0 0 0 0 0 0 0 0 0 0 0 44:1 46:1 57:1 59:1 76:1 101:1 102:1 125:1 126:1 137:1 149:1 161:1 186:1 187:1 188:1 190:1 192:1 200:1 205:1 
-0 0 0 1 0 1 1 1 0.3847115758576493 1 1 0 0.9346166322231054 1 1 1 1 1 1 0 0 0 0.4779395684552101 0 0 1 0 0 0 0 1 1 0.2856427355196298 1 0 0 0 1 1 1 0 0 0 1 0 0 1 1 44:1 46:1 57:1 59:1 76:1 101:1 102:1 126:1 137:1 149:1 161:1 174:1 187:1 189:1 192:1 201:1 203:1 205:1 
-1 1 1 1 1 1 1 1 1 1 1 1 1 1 1 1 1 0 1 1 1 1 1 1 1 1 0.4968089707762373 1 0.03726845826948929 1 1 1 1 1 1 1 1 1 1 1 1 1 1 1 1 1 1 1 61:1 75:1 89:1 101:1 113:1 125:1 137:1 188:1 190:1 192:1 199:1 202:1 206:1 
-1 1 0 1 0.5121014198849358 1 1 0 0 1 1 1 1 0 0 1 0.8068984057934587 1 1 0 0 1 0 0.8490220758346636 1 0.4852663306207146 1 0 0.6234961601185116 0 0 0 0.5976871107738142 0 0 0 1 1 1 0.4440816379090214 1 0 1 1 1 1 0 1 44:1 56:1 59:1 61:1 69:1 76:1 114:1 125:1 126:1 137:1 162:1 173:1 188:1 189:1 191:1 193:1 200:1 202:1 205:1 
-0 0 0 0 0 0 0 0 0 0 0 0 0 0.2785183347149662 0 0.3929949249725452 0 0 0 0 0 0 0 0 0.1216046291319584 0 0 0 0 0 0 0 0 0 0 0 0 0 0 0 0 0 0 0 0 0 0 1 47:1 48:1 57:1 60:1 69:1 75:1 89:1 113:1 125:1 137:1 161:1 162:1 173:1 188:1 189:1 190:1 193:1 199:1 200:1 205:1 
-0 0 0 0 0 0 0 0 0 0 0 0 0 1 0 0 0 0 0 0 0 0 0 0 0 0 0 0 0 0 0 0 0 0 0 0 0 0 0 0 0 0 0 0 1 0 0 0.5165679062270333 47:1 61:1 75:1 76:1 89:1 102:1 114:1 125:1 126:1 150:1 161:1 162:1 187:1 189:1 193:1 199:1 201:1 203:1 204:1 205:1 
-0 0.2494216320098153 0 0 1 0 0 0 0 0 0 1 0 0 0 0 0.0887276182779162 1 0 0 0 0.7566528030644468 0 1 1 0 0.01980564096347051 0 0.9099077368839236 1 0 0 0 0 0 0.7953101594601784 0 0 0 0 0 0 1 1 1 0 0 0 44:1 46:1 76:1 101:1 102:1 125:1 126:1 137:1 149:1 161:1 186:1 187:1 188:1 192:1 200:1 203:1 205:1 
-0 0 1 0 0 1 0 1 0 1 0 1 0 0 1 0 1 0 0 1 1 0.8606587136295993 1 1 1 1 0 0.3890239662907923 0.5923656383875748 1 0.02399041664826818 0.9477989736097474 0.7494675248036351 1 0 0.5646900260274144 0 0 1 1 1 0.8809286223392254 0 1 1 1 1 1 44:1 46:1 57:1 76:1 101:1 102:1 126:1 137:1 149:1 161:1 174:1 187:1 189:1 192:1 201:1 203:1 205:1 
-0 1 0.4408811545206492 1 0 1 1 1 0 1 1 1 0 1 1 0 1 0 0 0 1 0 0 0 1 1 1 0.5985222683836169 1 0.009556620533457093 0.7139329789291022 1 0 1 1 1 1 0 0.7288884623864882 1 1 0 0.5301383299971781 1 0 1 1 0 61:1 69:1 75:1 76:1 89:1 101:1 125:1 126:1 137:1 173:1 179:1 189:1 190:1 191:1 193:1 199:1 200:1 202:1 
-1 1 0 1 1 1 1 1 0 0.3161440969335645 1 1 1 1 1 1 1 1 0 1 0.9875366965903667 0.7020076919342595 0.8722883313314583 0.1149999541129196 0 1 0.397543270812057 0.1858639275137522 0.6636413714609712 0.7736951380882428 0.8374478007366859 0 1 0.6898436968286769 0 0.2419252275685204 1 1 0.1431851983937662 1 0 1 1 0.1380990825234214 0.2169326245155607 0.3442758582579822 1 1 2:1 30:1 42:1 47:1 58:1 59:1 62:1 69:1 102:1 114:1 125:1 126:1 173:1 174:1 188:1 189:1 190:1 193:1 199:1 201:1 203:1 204:1 205:1 
-0 1 1 1 0.1690409155230156 1 1 1 1 0 1 1 1 1 1 1 1 1 1 1 0.3689087165133166 1 1 1 1 1 0.8951478713028822 0 0.6601963169657594 1 1 1 0.5377712760266782 1 1 1 1 1 1 0.5478160185690042 0 0 0.8431309391337388 1 1 0.3461722200179105 0 1 8:1 32:1 44:1 46:1 47:1 57:1 61:1 62:1 75:1 89:1 114:1 125:1 137:1 162:1 173:1 174:1 191:1 192:1 199:1 201:1 202:1 251:1 
-0 0 0 0 0 0 0 0 0 0.774761093215029 0 0 0 0 0 0 0 0 0 0 0 0 0.5663190645470859 0 0 0 0 0 0 0.3258590049509811 0 0 0 0 0 0 0 0 0 0 0.1698250533789414 0 0 0 0 0 0 0 44:1 46:1 76:1 101:1 102:1 125:1 126:1 137:1 149:1 161:1 186:1 188:1 190:1 192:1 200:1 205:1 
-1 1 1 1 1 1 1 1 1 0 1 1 1 1 1 1 0 1 1 1 1 1 0.7540222132135589 1 1 1 1 0.360200666026349 1 1 0 0 1 1 0 1 1 1 1 0.7612804604268933 0.6299155157841823 1 1 1 1 1 1 1 44:1 48:1 57:1 59:1 60:1 63:1 75:1 88:1 100:1 112:1 124:1 125:1 150:1 162:1 173:1 188:1 189:1 199:1 201:1 205:1 
-0.3629200385512925 1 1 1 1 1 1 1 1 1 1 1 1 1 1 1 1 1 1 1 0 1 1 1 1 1 1 1 0.1472591085710814 1 1 1 1 0 0.9895366262239712 1 1 1 1 1 1 1 1 1 1 1 1 1 45:1 48:1 56:1 57:1 60:1 62:1 63:1 75:1 76:1 87:1 88:1 112:1 124:1 150:1 161:1 162:1 173:1 174:1 188:1 189:1 199:1 201:1 206:1 
-1 1 1 1 1 1 1 1 1 1 1 1 1 1 1 1 1 1 1 1 1 1 1 1 1 1 1 1 1 1 1 1 1 1 1 1 1 1 1 1 1 1 1 1 1 1 1 1 45:1 47:1 59:1 69:1 75:1 88:1 102:1 113:1 125:1 150:1 173:1 191:1 201:1 202:1 206:1 
-0 0 0 0 0 0 0 0 0 0 0 0 0 0 0 0 0 0 0 0 0 0 0 0 0 0 0 0 0 0 0 0 0 0 0 0 0 0 0 0 0 0 0.5023288328679733 0 0 0 0 0 61:1 69:1 75:1 76:1 89:1 102:1 114:1 125:1 126:1 138:1 150:1 173:1 174:1 190:1 193:1 200:1 201:1 202:1 204:1 205:1 
-0 0 0 0 0 0.6698771014502122 0.6183261764637075 0.9583934762597363 0 0 0 0 0 0 0 0 0 1 0 0 0 0 0 0 0.1545904082349186 0 0 0 0 0 0 1 0 0 0.3688912812288916 0 0 0 0 0 0 0 0 0 0 0 0 0 45:1 46:1 58:1 61:1 62:1 69:1 75:1 89:1 114:1 126:1 137:1 138:1 161:1 162:1 173:1 188:1 190:1 193:1 199:1 202:1 205:1 
-1 1 1 1 1 1 1 1 1 1 1 1 0 1 1 1 1 1 1 0 1 1 0 1 1 1 1 0 1 0 0.7882077971254422 1 0 1 1 1 1 1 1 1 1 1 1 1 0.6642116614086229 1 1 1 44:1 45:1 47:1 48:1 62:1 75:1 101:1 113:1 125:1 137:1 149:1 173:1 187:1 190:1 193:1 201:1 
-0 1 0 0 0 1 0 1 0 1 0 0 0 0 0.1348808184279967 0 0 0 0 0 0 0 0 0 0 0 0 0 0 0 0.619778808062761 0 0 0 0 0 0 0.04337170958182024 0 0 0 1 0 0 0 1 1 0 47:1 61:1 75:1 76:1 89:1 102:1 114:1 125:1 126:1 137:1 138:1 149:1 161:1 186:1 189:1 191:1 201:1 202:1 205:1 
-0 0 0 0 0 0 0 0 0 0 0 0 0 0 0 0 0 0.7346417032611615 0 0 0 0 0 0 0 0 0 0 0 0 0 1 0 0 0.1557376544137317 0 0 0 0 0 0 0 0 0 0 0 0 0 44:1 46:1 48:1 58:1 60:1 69:1 76:1 89:1 114:1 126:1 137:1 138:1 150:1 161:1 173:1 188:1 193:1 199:1 200:1 203:1 205:1 
-0 0 0 0 0 0 0 0 0 0 0 0 0 0 0 0 0 0 0 0 0 0 0 0 0 0 0 0 0 0 0 1 0 0 0.696192036911203 0 0 0 0 0 0 0 0 0 0 0 0 0 44:1 46:1 48:1 58:1 60:1 69:1 75:1 89:1 101:1 114:1 125:1 126:1 137:1 161:1 173:1 188:1 189:1 193:1 199:1 200:1 205:1 
-1 1 1 1 1 1 1 1 1 1 1 0.7649766709771191 1 1 1 1 0.6138140626853212 1 1 1 0.5542968340062902 1 1 1 1 1 0.6624149542356872 1 1 1 1 1 1 0 1 1 0.8339038984740513 1 1 1 1 1 1 1 1 1 0.7798646310400109 1 45:1 48:1 56:1 57:1 60:1 62:1 63:1 75:1 76:1 87:1 88:1 112:1 124:1 150:1 161:1 162:1 173:1 174:1 188:1 189:1 199:1 201:1 206:1 
-0.3629390972336908 0 1 1 0 0.5197804026816975 0 0 1 1 0 0 0 0 0 0 1 1 0 0 0 1 1 1 0.4185699195833522 0 1 1 0 1 0 1 0 0 1 1 0 0.8436685080485441 0 0 1 0 0 0 1 1 1 0 44:1 59:1 76:1 101:1 102:1 125:1 126:1 137:1 149:1 161:1 186:1 188:1 190:1 192:1 200:1 205:1 
-0.903778958559583 1 0 0.02744171405157982 0 1 0.241401368745229 1 0.0561261916105005 1 0.1820286240676788 0 0.7061551456338614 0 0 1 1 0 1 1 0 0 0.8033783471901588 1 0 1 0 0.8727279631386448 0 1 0 0 0 0 0 1 1 0.3912835660146189 0 0.6698401209777362 1 0 0.5692517658162228 0 0 0.09834632357799863 0.2265625021101995 1 45:1 58:1 60:1 76:1 101:1 102:1 125:1 126:1 137:1 149:1 173:1 174:1 190:1 192:1 200:1 201:1 204:1 206:1 
-0.6268694647714642 1 0 0 0 0 0 0 0 0 0 0 0 0 0 1 0 0 0 0 0.2851727623286504 0 0 0 0 0 0 0 0 0 0 0 0 0 1 0 0 0 0 0 0 0 0 1 0 0 0 1 44:1 46:1 58:1 60:1 61:1 69:1 88:1 89:1 102:1 113:1 125:1 137:1 138:1 149:1 173:1 174:1 190:1 191:1 193:1 199:1 201:1 206:1 
-1 1 1 1 1 1 1 1 1 1 1 1 1 1 1 1 1 1 1 1 1 0.7461242895734727 1 1 1 1 1 1 1 1 1 1 1 1 0.06289896077198598 1 1 1 1 1 1 1 1 1 1 1 1 1 3:1 9:1 49:1 58:1 60:1 69:1 88:1 101:1 138:1 149:1 161:1 187:1 188:1 190:1 191:1 200:1 201:1 204:1 206:1 219:1 234:1 
-0 0 0 0 0.7553479151204315 0 0 0.908924956197241 0 0 0 0 0 0 0 0 0 0 0 0 0 0 0 0 0 0 0 0 0 0 0 0 0 0 0 0 0 0 0 0 0 0 0 0 0 0 0 0 45:1 46:1 47:1 56:1 57:1 61:1 71:1 75:1 76:1 89:1 102:1 114:1 125:1 126:1 137:1 161:1 188:1 189:1 190:1 193:1 199:1 200:1 203:1 204:1 205:1 
-0 0.06701195952857775 0 0 0 0 0 0.4016203208841944 0 0 0 0 0 0 0 0 0 0 0 0 0 0 0 0 0 0 0 0 0 0 0 0 0 0 0 0 0 0 0 0.4318892121336279 0 0.02484242698670102 1 0 0 0 0 0 61:1 69:1 75:1 76:1 89:1 102:1 114:1 125:1 126:1 138:1 150:1 173:1 174:1 190:1 193:1 200:1 201:1 202:1 204:1 205:1 
-1 1 0 1 1 1 1 1 0 0 1 1 1 1 1 1 0 0 0.6466597060300305 1 1 0 1 0 0 1 0.4227226975894238 0 0.3163744159750814 0.6741871982338008 1 1 1 1 1 0.4899536691488558 1 1 0.444328953206628 1 0 0 0 0 0 0.3483654257152266 1 1 44:1 46:1 57:1 59:1 76:1 101:1 102:1 126:1 161:1 186:1 187:1 188:1 189:1 190:1 192:1 200:1 203:1 205:1 
-1 1 0 1 1 1 1 1 0.6351468002029032 1 1 1 1 0.8370414565008201 1 1 1 0 1 1 1 0 0 0.3872617965979605 0 1 0 0 0 0 1 0 1 1 0.114062636235511 0 0 1 0 0 0 0 0 0 1 0 0 1 45:1 46:1 57:1 58:1 60:1 61:1 89:1 113:1 114:1 138:1 149:1 174:1 186:1 188:1 190:1 191:1 192:1 193:1 199:1 202:1 205:1 
-0.6654922621126599 0.132785889228207 1 0 0 0 0 0 0.781241686939096 0.6719885887752927 0 0 0 1 0 0.5894567435087408 0 1 1 0 0 0.4437309197128664 1 0 1 0 0 0 0.2481556292284933 0 0 1 0 0 1 0.06264765706154819 0 0.7260988876813989 0.1481200865497443 0 0 0 0 0 0 0 0 0 47:1 48:1 57:1 60:1 69:1 75:1 89:1 114:1 126:1 137:1 149:1 161:1 186:1 190:1 193:1 196:1 200:1 204:1 205:1 
-0 0 0 0 0 0 0 0 0 0 0 0 0 0.7466510673329312 0 0 0 0 0 0 0 0 0 0 0 0 0 0 0 0 0 0 0 0 0 0 0 0 0 0 0 0 0 0 0 0 0 0.04112896520236087 47:1 48:1 57:1 60:1 69:1 75:1 89:1 114:1 126:1 138:1 150:1 161:1 162:1 173:1 186:1 188:1 189:1 190:1 193:1 200:1 201:1 204:1 205:1 
-0 1 0 0 0 0 0 0.2631317349691332 0 0 0 0.3751950905673133 0 0 0 0 0 0 0 0 0 0 0 0 0 0 0 0 0 0 0 0 0 0 0 0 0 0 0 0 1 0 0 1 0 1 0 0 48:1 69:1 75:1 76:1 89:1 101:1 113:1 114:1 125:1 137:1 138:1 150:1 161:1 162:1 186:1 190:1 192:1 193:1 199:1 202:1 204:1 
-1 1 0 1 0 1 0 0 0 0 1 1 0 1 0 1 0 0 1 0 0 0 0 0.3888467566700274 0 1 0 0 0 0 0 0 0 0 0 0 1 0 1 0.4903420585213094 0 0 0 0 0 0 0 1 44:1 46:1 57:1 59:1 76:1 101:1 102:1 126:1 161:1 186:1 187:1 188:1 189:1 190:1 192:1 200:1 201:1 205:1 
-0 0 0 0 0 0 0 0 0 0 0 0 0 0 0 0.8233116815529257 0 0 0 0 0 0 0 0 0 0 0 0 0 0 0 0 0 0 0 0 0 0 0 0 0 0 0 0 0 0 0 0 47:1 57:1 60:1 69:1 75:1 101:1 114:1 125:1 126:1 138:1 150:1 161:1 162:1 173:1 174:1 189:1 190:1 193:1 199:1 200:1 202:1 204:1 205:1 
-0 0 1 0 0 0 0 0 0.2559160850285361 0 0 0.4626647378868327 0.8431102055505914 0 0.2239858843147823 0 0 0 0 0.3980130618696365 0 0 0.6814375779929344 0 0.5913232464461989 0 0 0 0 0 0 1 0.6284030521163201 0 1 0 0 0 0 0 0 0 0 0.8166513831037898 0 0 0 1 44:1 58:1 60:1 61:1 69:1 75:1 76:1 89:1 101:1 113:1 138:1 149:1 162:1 173:1 174:1 189:1 192:1 193:1 200:1 203:1 205:1 
-1 0 1 0.4066088246312863 0 1 0.2507042760480909 1 1 1 0.3820789954779837 0 1 0 0.9149510159438623 0 0 0 0.03047819500323372 1 0.994570625268531 0 1 0 1 0 0 1 0.7103914657648411 1 1 0 0.5833183911303187 1 0 0.7478841980986261 1 1 0 0 0 0.760655532752972 0 1 1 1 0 1 11:1 45:1 46:1 48:1 75:1 87:1 89:1 102:1 125:1 126:1 137:1 152:1 174:1 190:1 191:1 193:1 199:1 200:1 202:1 205:1 
-1 1 0.5737428965136517 1 1 1 1 1 1 1 1 1 1 1 1 1 0.5935570465818246 1 1 1 1 1 1 1 1 1 1 0.6333682050622559 1 1 1 1 1 1 1 0.7353082706235928 1 1 1 1 1 0.975157573013299 1 1 1 0.3826553565054765 1 1 1:1 4:1 36:1 45:1 46:1 48:1 56:1 61:1 69:1 89:1 114:1 128:1 137:1 139:1 161:1 162:1 169:1 187:1 190:1 191:1 193:1 198:1 200:1 201:1 206:1 217:1 249:1 
-0 1 0.4709370664867264 0 1 0 0 0 0 0 0 1 0 0 0 0 1 1 0 0 0 1 0.06742689691348484 1 0.6587859086649238 0.973416526530161 1 0.8830283242416831 1 1 0 0 0 0 0 1 0 0 0 0 0 0 0.9668421376336419 1 1 0 0 0 44:1 46:1 76:1 101:1 102:1 125:1 126:1 137:1 149:1 161:1 186:1 187:1 188:1 192:1 200:1 203:1 205:1 
-0 1 1 0.7755003778402276 0 0.5050407530733486 1 0 1 1 1 1 1 0 0 1 1 1 1 1 0 0.8935116171267621 0.5128194913920292 1 0 0.2145153270201275 0 0.7228673948294433 0 0.4105142569654218 0.4793735575195434 1 0 0 1 1 0.6092750148858556 0 1 0 0 0 0 0 0.2404691589339889 0 1 0.1061788678317928 44:1 46:1 58:1 60:1 61:1 75:1 89:1 113:1 114:1 126:1 149:1 161:1 173:1 174:1 186:1 188:1 189:1 191:1 200:1 204:1 206:1 
-0 0 0 0 0 0 0 0 0 0 0.1025993104567448 0 0 0 0 1 0 0.8994206643528618 0 0 0 0 0 0 0 1 0 0 0 0 0 0 0 0 0 0 0 0 0 0 0 0 0 0 0 0 0 0.5732088839091856 47:1 48:1 57:1 60:1 69:1 75:1 89:1 125:1 126:1 137:1 161:1 162:1 173:1 188:1 189:1 190:1 191:1 193:1 199:1 200:1 206:1 
-0 0 0 0 0.9153887102937234 1 1 1 0.8694203806192411 1 1 0.3206598595999774 1 1 1 1 1 1 1 0.2280375217245568 0 0 1 0.4824226445167162 0 1 0.6573829997956964 0 0 0.8742921791455105 1 1 1 0.4777663278312405 0.4123787942418264 0 0.1020538078168379 1 1 1 0.813733404259014 0 0 1 0.6312382900657558 0 1 1 44:1 46:1 57:1 59:1 76:1 101:1 102:1 126:1 137:1 149:1 161:1 174:1 187:1 189:1 192:1 201:1 203:1 205:1 
-1 0 0 0 0 0 0 0 0 0 0 0 0 0 0 0 0 0 0 0 0 0 0 0 0 0 0 0 0 0 0 0 0 0 0 0 0 0 0 0 0 0 0 0 0 0 0 0.7118520862726476 44:1 46:1 48:1 58:1 60:1 61:1 69:1 76:1 89:1 125:1 126:1 137:1 138:1 162:1 173:1 188:1 190:1 192:1 193:1 200:1 201:1 202:1 205:1 
-1 1 0.5290997264445827 0 1 0.8383647586144657 0 1 0 0 0.2779813065682601 0 0.489313710335544 1 1 0 0.3846512154796059 0.2478625634771739 1 0 1 0 0 0.8351658508564719 1 1 0 0.8195025039415341 0 1 1 1 0.3094171383461629 1 1 0.6703848980156488 1 0 1 1 0 0.1281450403416806 0 1 0 1 0 0.06907633213442069 47:1 61:1 75:1 76:1 89:1 102:1 126:1 137:1 161:1 186:1 187:1 190:1 193:1 201:1 204:1 205:1 
-0 0 0 0 0 0 0 0 0 0 0 0 0 0 0 0 0 0 0 0 0 0 0 0 0 0 0 0 0 0 0 0.5514770998990995 0 0 0 0 0 0 0 0 0 0 0 0 0 0 0 0 44:1 58:1 60:1 61:1 69:1 75:1 76:1 89:1 101:1 113:1 125:1 126:1 138:1 161:1 162:1 173:1 189:1 190:1 193:1 199:1 200:1 202:1 205:1 
-0 0 0 0 0 0.7764710511838306 0 0 0 0 0 0 0 0 0 0 0 0 0 0 0 0 0 0 0 0 0 0 0 0 0 0 0 0 0 0 0 0 0 0 1 0 0 0 0 0 0 0 44:1 48:1 58:1 69:1 75:1 89:1 101:1 114:1 125:1 126:1 137:1 150:1 162:1 173:1 188:1 189:1 190:1 191:1 193:1 205:1 
-0 0 0 0 0 0 0 0 0 0.3147827885185318 0 0 0 0 0 0 0 0 0 0 0 0 0 0 0 0 0 0 0 0 0 0 0 0 0 0 0 0 0 0 0 0 1 1 0.485615181946242 0 0 0 48:1 69:1 76:1 89:1 114:1 125:1 126:1 137:1 138:1 150:1 161:1 162:1 173:1 187:1 188:1 189:1 190:1 193:1 200:1 205:1 
-0 0 0 0 0 0 0 0 0 0 0 0 0 0 0 0 0 0 0 0 0 0 0 0 0 0 0 0 0 0 0 0 0 0 0 0 0 0 0 0 0 0 0 0 0 0 0 1 46:1 48:1 57:1 60:1 68:1 75:1 89:1 114:1 125:1 126:1 137:1 161:1 162:1 173:1 188:1 189:1 190:1 193:1 199:1 200:1 204:1 205:1 
-1 0 0 0 0.03628783557427212 1 1 0.9213287799012662 0.4511559636901062 0.05875749520874811 0 0 1 0 0.4625677814187453 0 0 0.1519291129685487 0.7289306510246945 1 0.1847880489900779 0 0.2394536500947547 1 0 0.4437454472012501 0 0 0.5817441912973358 0.08067773605757021 0 0 1 1 1 1 0 0.6625002306265476 0.5847291729105761 1 1 1 0 0.2852055366526456 0 0.8213232350883402 1 1 44:1 48:1 58:1 60:1 69:1 76:1 89:1 114:1 126:1 138:1 162:1 173:1 174:1 189:1 193:1 201:1 203:1 205:1 
-0 0 0 0 0 0 0 0 0 1 0 0 0 0 0 0 0 0 0 0 0 0 0 0 0 0 0 0 0 0 0 1 0 0 0 0 0 0 0 0 0 0 0 0 0.7777731936792609 0.1582866690894503 0.7259812245221586 0 48:1 69:1 75:1 89:1 101:1 114:1 125:1 126:1 137:1 138:1 150:1 161:1 162:1 186:1 190:1 193:1 199:1 202:1 205:1 
-0 0 0 0 0 0 0 0 0 0 0 0 0 0 0 0 0 0 0 0 0 0 0 0 0 0 0 0 0 0 0 0 0 0 0 0 0.9132276453841497 0 0 0 0 0 0 0 0 0 0 0 44:1 46:1 59:1 76:1 101:1 102:1 125:1 126:1 137:1 149:1 161:1 186:1 188:1 190:1 192:1 200:1 201:1 205:1 
-1 1 0 1 0 1 0.9073226332249065 0.5107258437747211 0 0 1 1 0 1 0 1 0 0 1 0 0.5508386982470875 0 0.1620522702779284 1 0 1 0 0 0 0 0.8421152535519411 0 0 0 0 0 1 0 1 1 0 0 0 0 0 0 0 1 44:1 46:1 57:1 59:1 76:1 101:1 102:1 126:1 161:1 186:1 187:1 188:1 189:1 190:1 192:1 200:1 201:1 205:1 
-0 0 0 0 0 0 0.9903617957840961 0 0 0 0 0 0 0 0 0 0 0 0 0 0 0 0 0 0 0 0 0 0 0 0 0 0 0 0 0 0 0 0 0 0 0.6348712769085492 0 0 0 0 0 0 46:1 48:1 61:1 62:1 69:1 76:1 89:1 113:1 125:1 126:1 137:1 161:1 162:1 173:1 188:1 189:1 190:1 193:1 199:1 200:1 204:1 205:1 
-0 0 0.9393900055726591 0 0.4797866387575968 0 0 0 1 1 0 0.04007674743855378 0.1509860889494782 0 1 1 0 0 1 0.07697631441723937 0.02509437742100394 1 1 1 0 1 0.1987761747046522 1 1 1 1 0 1 1 0 1 0 0 1 1 1 0 0 0 1 0 0.7776086790457847 0 44:1 46:1 76:1 101:1 102:1 125:1 126:1 149:1 161:1 174:1 186:1 188:1 190:1 192:1 200:1 205:1 
-0 1 0 0.4968876724609143 0 0 0 0 0 0 0 0 0 0 0 0 0 0 0 0 0 0 0 0 0 0 0 0 0 0 0 0 0 0 0 0 0 0 0 0 0 0 0 0 1 0 0 1 44:1 48:1 60:1 61:1 69:1 88:1 89:1 114:1 125:1 126:1 137:1 138:1 162:1 173:1 187:1 188:1 189:1 191:1 193:1 200:1 202:1 205:1 
-1 1 1 1 1 1 1 1 1 1 0.7189613225188721 1 1 1 1 1 1 1 1 1 1 1 0.3783875584894904 1 0.6756313299386036 1 1 1 0.7136629401980821 0.8472476597592837 1 1 1 1 1 0.4395304459555011 1 1 1 1 1 1 1 1 1 1 1 1 44:1 46:1 48:1 58:1 62:1 69:1 76:1 89:1 101:1 113:1 136:1 138:1 150:1 175:1 187:1 189:1 192:1 194:1 199:1 202:1 206:1 
-1 1 1 0.8835774541529992 0 1 0 0.2731994075413473 1 1 0.4443443177715112 1 1 1 1 1 1 1 1 1 0.108484364355792 0.7873270586173772 1 1 1 1 1 1 0 1 0 1 1 1 1 1 1 1 1 0.9046431091048867 1 1 0.9570111034716369 1 1 1 1 1 45:1 47:1 48:1 69:1 75:1 89:1 113:1 131:1 138:1 150:1 162:1 174:1 186:1 189:1 193:1 199:1 201:1 203:1 205:1 
-0 0 0.03286126993616266 0 0 0 0 0 0 0 0.8020607124782766 0 0 0 0 0.1948188674124872 0 0 0 0 0 0 0 0 0 0 0 0 0 0 0 0 0 0 0 0 0 0 0 0 0 0 0 0 1 0 0 0 44:1 58:1 60:1 61:1 62:1 69:1 75:1 88:1 89:1 113:1 114:1 125:1 126:1 138:1 149:1 150:1 173:1 174:1 188:1 190:1 191:1 193:1 200:1 205:1 
-1 0.1783774684944519 0 0 0 0 0 0 0 0 1 0 0 0 0 1 0 0 0 0 0 0 0 0 0 0.7308273100670187 0 0 0 0 0 0 0 0 0 0 1 0 0 0 0 0 0 0 0 0 0 0.2466757232123166 44:1 58:1 60:1 61:1 69:1 76:1 114:1 125:1 126:1 138:1 162:1 173:1 188:1 189:1 190:1 191:1 193:1 199:1 200:1 205:1 
-0 0 0 0 0 1 0 0.4281481051428116 0.4669823975320857 0 0 0 0 0 0 0 0 0.2855759020198282 0 0 0 0 0 0 0 0 0 0 0 0 0 1 0 0 0.5910894144647457 0 0 0 0 0 0 0.1019864733233782 0 0 0 0.6423577876585662 0 0 44:1 46:1 48:1 58:1 60:1 61:1 69:1 75:1 89:1 101:1 102:1 114:1 125:1 126:1 137:1 138:1 149:1 162:1 173:1 189:1 190:1 200:1 
-0.937805466444898 1 0 0 0 0 0 0.43171402400032 0 0.1194850429888522 0 0 0 0 0 0 0 0 0 0 0 0 0 0 0 0 0 0 0 0 0 0 0 0 0 0 0 0 1 0 0 0 0 0 0 0 1 0 46:1 57:1 76:1 101:1 102:1 125:1 126:1 137:1 149:1 161:1 186:1 188:1 190:1 192:1 200:1 201:1 205:1 
-0 0.2108565672135958 0 0 0 0 0 0 0 0 0 0 0 0 0 0 0 0 0 0 0 0 0 0 0 0 0 0 0 0 0 0 0 0 0 0 0 0 0 0 0 0 0 0 0 0 0 0.9341332605015714 44:1 48:1 60:1 61:1 69:1 76:1 89:1 113:1 125:1 126:1 137:1 138:1 162:1 173:1 188:1 189:1 190:1 191:1 192:1 193:1 200:1 202:1 205:1 
-1 1 0 1 0 0 1 1 0.1849485287994473 0.0762487323896158 1 0 1 1 0 1 0.5154502221216049 0.8124520520927542 1 0.3577023276744093 0 0.3343480804406002 0.01640276648810058 0.2616293236644298 0 1 0 0.9907589664494636 0 0 0 0 0 0 0 0 1 0.1985662841053042 0 0 0 0 0 0.4727195763342398 1 0 0 1 44:1 46:1 48:1 57:1 59:1 61:1 88:1 90:1 102:1 113:1 125:1 137:1 149:1 173:1 174:1 187:1 191:1 200:1 201:1 203:1 204:1 205:1 206:1 
-0 0 0 0 0.6460211737444866 0 0 0 0 0 0 0 0 0 0 0 0 0 0 0 0 0 0 0 0 0 0 0 0 0 0 0 0 0 0 0 0 0 0 0 0 0 0 0 0 0 0 0 44:1 46:1 48:1 58:1 60:1 69:1 75:1 89:1 114:1 126:1 137:1 138:1 150:1 161:1 162:1 173:1 187:1 188:1 189:1 191:1 193:1 203:1 205:1 
-1 0 0 0 1 0 0.2164889715645261 1 0 0 0 0 0.3102608743509938 0 0.2736800099675887 0 0 0 0 0 0 0 0 0 0 0 0 0 0 0 1 0 0.3727846901407454 0 0 0 0 0 0 0 0 0 0 0 0 0 1 0 47:1 61:1 75:1 76:1 89:1 102:1 114:1 125:1 126:1 150:1 161:1 188:1 189:1 190:1 193:1 199:1 203:1 204:1 205:1 
-1 0 1 0.140503160732439 0 0 0 0 0 1 1 0 0.3090935445863934 0 1 0 1 0 1 0 0.5282604437319426 1 0.8113667419636367 1 0.5085094858660086 1 1 0.1753524602043073 0.3001470423940353 1 0 0 0 1 0 1 0.7117857105949918 0 0 0 0 0 1 0 1 0 1 0 44:1 61:1 75:1 89:1 114:1 125:1 126:1 138:1 161:1 162:1 173:1 188:1 190:1 191:1 193:1 200:1 205:1 
-1 1 0.4336260246430566 1 1 1 1 1 1 1 0.5802265037286917 1 1 0.7298813044494424 1 0.9171536092804775 1 0.2544014363003543 1 0.9743738078441817 1 1 0.9238320946485683 1 0.4801982997476661 1 0.8769755097513001 1 1 1 1 0.4831630891522659 0.9057575615203212 1 1 1 1 0 1 1 0.3203940478910546 0.9709064953411231 1 1 1 0 1 1 46:1 48:1 57:1 76:1 79:1 89:1 92:1 114:1 126:1 149:1 161:1 170:1 186:1 187:1 188:1 193:1 200:1 202:1 203:1 205:1 
-0 0 0 0 0 0 0 0 0.1061007424064406 0 0 0 0 0 0 0 0 0 0 0 0 0 0 0 0 0 0 0 0 0 0 0 0 0 0.8303605826836807 0 0 0 0 0 0 0 0 0 0 0 0 0 46:1 59:1 61:1 75:1 76:1 79:1 89:1 92:1 101:1 114:1 125:1 126:1 131:1 138:1 149:1 150:1 161:1 162:1 173:1 186:1 187:1 193:1 200:1 201:1 203:1 205:1 223:1 
-0 0 0 0 0 0 0 0 0 0 0 0 0 0.01365695074753314 0 0 0 0 0 0 0 0 0 0 0 0 0 0 0 0 0 0 0 0 0 0 0 0 0 0 0 0 0 0 0 0 0 0 47:1 57:1 60:1 61:1 69:1 76:1 89:1 114:1 125:1 126:1 137:1 161:1 162:1 173:1 188:1 189:1 190:1 193:1 199:1 200:1 204:1 205:1 
-0 0 0 0 0 0 0 0 0 1 0 0 0 0 0 0 0 0 0 0 0 0 0 0 0 0 0 0 0 0 0 0 0 0 0 0 0 0 0 0 0 0 0 0 0 0 0 0 47:1 58:1 61:1 69:1 76:1 101:1 113:1 114:1 125:1 126:1 137:1 138:1 150:1 161:1 162:1 173:1 187:1 188:1 189:1 190:1 191:1 193:1 200:1 205:1 
-0 0.4982286763511158 0 0.1062071723650164 0 0 0 0 0 1 0 0 0 0 0 0.5135195903817507 0 0 0 0 0 0 0 0 0 1 0 0 0 0 0 0 0 0 0 0 1 0 0 0 0 0 0 0 0 0 0 0 44:1 59:1 76:1 101:1 102:1 125:1 126:1 137:1 149:1 161:1 186:1 188:1 190:1 192:1 200:1 201:1 205:1 
-0 1 0.4813761648758553 0 0 0 0 0 0 0.05013654730809805 0 0 0.8830845864913345 0 0 0 1 0.5758135989429133 0 0 0 0 0 0 0 1 0 0 0 0 0.4327533801277155 0 0 0 0 0 0 0 0 0 0.7625346660397168 1 0 1 1 1 0 0.9334789612434022 48:1 69:1 76:1 89:1 125:1 126:1 137:1 138:1 150:1 161:1 162:1 186:1 190:1 191:1 192:1 199:1 202:1 205:1 
-0 0 0 0 0 0 0 0 0 0 0 0 0 0 0 0 0 0 0 0 0 0 0 0 0 0 0 0 0 0 0 1 0 0 1 0 0 0 0 0 0 0 0 0 0 0 0 0 44:1 47:1 48:1 56:1 58:1 69:1 75:1 89:1 92:1 101:1 105:1 114:1 118:1 126:1 137:1 149:1 161:1 162:1 186:1 188:1 190:1 193:1 199:1 200:1 202:1 205:1 
-1 0 0.07916719754058191 0 1 1 1 0 0 0 0 0 0 0 0 0 0 1 0.1033199412301751 0 0 0 0 0 0 0 0 0 0 0 0 0 0.7285292506240326 0 0.6813567916279757 0 0 0 0 0 0 1 0.4785271774295058 0 0 0 0 0 44:1 48:1 61:1 62:1 76:1 89:1 114:1 125:1 126:1 138:1 161:1 162:1 173:1 188:1 190:1 193:1 200:1 205:1 
-0 0 0 0 0.6381460871873267 0 0 0 0 0 0 0 0 1 0 0 0 0 0 0 0 0 0 0 0 0.03951234490785996 0 0 0 0 0 0 0 0 0 0 0 0 0 0 0 0 0 0.5713983554567174 1 0 0.5592558295385679 1 47:1 61:1 75:1 76:1 89:1 102:1 114:1 125:1 126:1 150:1 161:1 162:1 187:1 189:1 193:1 199:1 201:1 203:1 204:1 205:1 
-0 0 0 0 0 0 0 0 0 0 0 0 0 0 0 0.737703697771795 0 0 0 0 0 0 0 0 0 0 0 0 0 0 0 0 0 0 0 0 0 0 0 0 0 0 0 0 0 0 0 0 44:1 46:1 57:1 59:1 76:1 101:1 102:1 125:1 126:1 137:1 149:1 161:1 186:1 188:1 190:1 192:1 200:1 205:1 
-0 0 0 0 1 0 1 0 0 0 0.5488847737426116 0 0 1 0 0.74846296812118 0 0.1321573334327543 0 0 0 0 0 0 0 0 0 0 0 0 0 0 0 0 0 0 0 0 0 0 0 0 0 0 0 0 0 1 44:1 46:1 48:1 56:1 57:1 60:1 62:1 69:1 71:1 76:1 114:1 118:1 126:1 138:1 149:1 161:1 173:1 186:1 188:1 189:1 190:1 193:1 200:1 201:1 204:1 205:1 
-0 1 1 0 1 1 0.5646006121005696 1 1 1 1 0 1 0.7798998327782808 1 0 1 0.4581676569649183 1 1 1 0 1 1 0 1 0 1 0 1 1 0.5335226449638251 1 1 0 1 1 0.1968073817182589 0.2894744267619865 1 1 1 1 0 1 0 1 1 44:1 46:1 59:1 76:1 101:1 102:1 126:1 137:1 149:1 161:1 174:1 187:1 189:1 192:1 201:1 203:1 205:1 
-0.3357232004369588 0 0 0 0 0 0 0 0 0 0 0 0 0 0 0 0 0 0 0 0 0 0 0 0 0 0 0 0 0 0 0 0 0 0 0 0 0 0 0 0 0 0 0 0 0 0 0 44:1 46:1 48:1 58:1 60:1 69:1 89:1 113:1 125:1 126:1 137:1 138:1 150:1 162:1 173:1 188:1 189:1 190:1 193:1 199:1 200:1 202:1 205:1 
-0.1487561253317382 0 0 0.8719485668803579 0 0.2819718737052782 0 0 0 1 1 1 0.5315291209004325 0 1 1 1 1 0 0 1 1 1 1 0.8181542932276942 1 0.8869113474532813 1 0.585135433461678 1 0 1 0 1 0.6610340294885368 1 1 1 1 0 0.2056408869455603 0 0.5327221519194509 1 1 0 0 1 45:1 48:1 56:1 88:1 102:1 114:1 126:1 137:1 138:1 161:1 173:1 186:1 187:1 190:1 191:1 199:1 200:1 202:1 205:1 206:1 
-0.02567952401383458 1 1 1 0 1 0 0.5865050098005941 0.6034808785413437 1 1 0.4972893008975969 0 1 0 1 1 1 1 0 0.3444967901613689 0 0 1 0 1 0 0.1967134120699229 0.6046661100793638 1 0 1 0 0.9478953174404745 1 1 1 1 0.829607192176753 0 0.1326335633888451 0 1 1 1 1 1 0.4736499166136449 45:1 47:1 58:1 75:1 89:1 101:1 126:1 138:1 150:1 161:1 173:1 187:1 190:1 192:1 199:1 201:1 204:1 206:1 
-0 0 0 0 0 0 0 0 0 0 0 0 0 0 0 1 0 0 0 0 0 0 0 0 0 0 0 0 0 0 0 0 0 0 0 0 0 0 0 0 0 0 0 0 0 0 0 0 44:1 46:1 57:1 59:1 76:1 101:1 102:1 125:1 126:1 137:1 149:1 161:1 186:1 188:1 190:1 192:1 200:1 205:1 
-0 0 0 0 0 0 0 0 0 0 0 0 0 0 0 1 0 0 0 0 0 0 0 0 0 0 0.06347770695364352 0 0 0 0 0 0 0 0 0 0 0.6757752636674842 0 0 0 0 0 0 0 0 0 0 44:1 46:1 57:1 59:1 76:1 101:1 102:1 125:1 126:1 137:1 149:1 161:1 186:1 188:1 190:1 192:1 200:1 205:1 
-0 0 0 0 0 0 0 0 0 1 0 0 0 0 0 0 0 0 0 0 0 0 1 0 0 0 0 0 0 1 0 0 0 0 0 0 0 0 0 0 1 0 0 0 0 0 0 0 44:1 46:1 76:1 101:1 102:1 125:1 126:1 137:1 149:1 161:1 186:1 188:1 190:1 192:1 200:1 205:1 
-0 0 0 0.7680834730858876 0 0 0 0 0 0 0 0 0 0 0 0 0 0.5758047489954209 0 0 0 0 0 0 0 0 0 0 0 0 0 0.4622007152453277 0 0 0 0 0 0 0 0 0 0 0 0 0 0 0 0 44:1 46:1 47:1 57:1 76:1 101:1 102:1 125:1 126:1 137:1 149:1 161:1 186:1 188:1 190:1 192:1 200:1 205:1 
-0 0.8333639566429637 0 0 0 0 0.3572009329823518 1 0 0 0 0 0 0 1 1 0 0 0 0 0.4800579019563695 0 0 0 0 0 0 0 0 0 0 0 0 0.7358239509103162 0 0 0 0 0 1 0 0 0 0 0 0 0 0 47:1 61:1 75:1 76:1 89:1 102:1 114:1 125:1 126:1 173:1 174:1 188:1 189:1 190:1 193:1 199:1 201:1 203:1 204:1 205:1 
-1 1 0 0.5937001296068468 1 0 1 0.874309931470198 0 0 0 0 0.3373299242599787 0.1749856460395324 1 1 0.2152845732313585 0 0 0 0.745856880658244 0 1 0 0 0.5448584464132123 0.2591244795773713 0 0 0.07139423350815451 1 0 0 0.1124277859220972 0 0 0 1 0 1 0 0 0.1014418485204179 1 0 1 0 0.2174851348683469 44:1 47:1 48:1 58:1 69:1 75:1 76:1 88:1 102:1 113:1 125:1 138:1 150:1 161:1 174:1 187:1 190:1 191:1 193:1 202:1 205:1 
-0 0.01602814344938716 0 0 0 0 0.4062067674106708 0 1 0 0 0 0 0 0 0 0 0 0 0 0 0 0 0 0 0 0 0 0 0 0 0 0 0 0 0 0 0 0 0 0.5643576257591473 0 0 0 0 0 0 1 47:1 60:1 61:1 75:1 76:1 89:1 102:1 114:1 125:1 126:1 149:1 150:1 173:1 174:1 186:1 189:1 190:1 193:1 204:1 205:1 
-1 1 1 1 1 1 1 1 1 1 1 1 1 1 1 1 1 1 1 1 1 1 1 1 1 1 1 1 1 1 1 1 1 1 1 1 1 1 1 1 1 1 1 1 1 1 1 1 45:1 58:1 69:1 125:1 149:1 174:1 193:1 201:1 203:1 205:1 
-0.3393607926105037 1 0.6108223636619267 1 1 0.2290089290156557 1 0.2797152887922901 0.7791812179273796 0 1 0 0.8075346592605492 1 0.8132559059421955 1 0.3540292515679493 0.2733894837668352 0 0.2044176715343536 0.713601682679769 0.06145876954588033 0 0 0.83769365496045 0.8340294982770372 0 0 0.4261938500679345 0 1 1 1 0.2433903262893891 1 0 0 0 0 0 0 0.6952161117503495 0 0 0 0 0.5858679287403756 1 3:1 7:1 48:1 56:1 58:1 59:1 62:1 75:1 89:1 90:1 101:1 113:1 125:1 126:1 137:1 161:1 162:1 173:1 180:1 188:1 189:1 190:1 191:1 192:1 199:1 200:1 206:1 207:1 212:1 232:1 253:1 
-1 0 0 1 0 1 0.2582074834897431 1 0 0 0 0 0 0 0 0 0 0 1 0 0 0 0 0 0 0 0.2618117085188871 0 0 0 1 0 0 0 0 0 0 1 0 0 0 0 0 0 0 1 0 0 44:1 46:1 57:1 59:1 76:1 101:1 102:1 125:1 126:1 137:1 149:1 161:1 188:1 190:1 192:1 200:1 205:1 
-1 0.9468906228011373 1 0.6051358371165497 0.4840457205226653 1 0 0 1 1 0 0 0 0 0 0 0 0 0.6142043546130588 0 0 0 0.4396101652174905 0 0 0 0 0 0 0.3225318968924326 0 1 0 0 1 0 0.5537035763435558 0.5611417361176391 1 0 0.9599727424666448 0 1 1 1 0.4883247139739886 1 0 47:1 60:1 69:1 75:1 89:1 101:1 114:1 125:1 126:1 138:1 150:1 162:1 173:1 188:1 193:1 200:1 202:1 205:1 
-0 0 0 0 0 0 0 0 0 0 0 0 0 0 0 0 0 0 0 0 0 0 0 0 0 0 0 0 0 0 0 0 0 0 0 0 0 0 0 0 0 0 0.4034363923278376 0 0 0 0 0 44:1 60:1 61:1 69:1 76:1 114:1 125:1 126:1 137:1 138:1 150:1 161:1 162:1 173:1 187:1 188:1 189:1 190:1 191:1 193:1 200:1 205:1 
-1 1 1 1 1 1 1 1 1 1 1 1 1 1 1 1 1 1 1 1 1 1 1 1 1 1 1 1 1 1 1 1 1 1 1 1 1 1 1 1 1 1 1 1 1 1 1 1 47:1 57:1 60:1 61:1 69:1 88:1 138:1 150:1 186:1 188:1 190:1 192:1 199:1 204:1 206:1 
-0 0 0 0 0.9842376526953471 0 0 0 0 0 0 0 0 0 0 0 0 0 0 0 0 0 0 0 0 0 0 0 0 0 0 0 0 0 0 0 0 0 0 0 0 0 0 0 0 0 0 0 47:1 61:1 75:1 76:1 89:1 102:1 114:1 125:1 126:1 137:1 161:1 188:1 189:1 190:1 193:1 199:1 200:1 203:1 204:1 205:1 
-0 -0 0 1 0 0 0.0103820000342996 0 0 0 1 0 0 0 0 0.8161789313680072 0 0.7694483103746615 0 0 0 0 0 0 0 0 0 0 0 0 0 0.7320157109972739 0 0 0.543255542061677 0 0.2154853385671135 0 0 0 0 0 0 0 0 0 0 0 45:1 47:1 58:1 59:1 60:1 61:1 69:1 76:1 88:1 100:1 109:1 111:1 113:1 123:1 124:1 126:1 127:1 141:1 180:1 186:1 188:1 191:1 192:1 200:1 202:1 204:1 
-1 -1 0 1 0 1 0 1 1 1 1 1 0 0 1 0.481145521432802 1 1 1 0 0.5779757968075049 1 1 1 1 1 1 1 1 1 1 1 0 0.133448664435976 1 1 0.2638166421972581 1 1 1 0.6304142646897296 0.4351372656346285 1 1 1 1 0 1 58:1 61:1 69:1 76:1 88:1 100:1 110:1 112:1 124:1 127:1 141:1 173:1 180:1 186:1 188:1 192:1 200:1 202:1 
-0 -1 0.641831773552494 0 0.07955964659703278 1 0 0 1 0 0 1 0.6846705461354352 1 1 0 0.9279839710711971 0.9576925733825677 1 0 0.8289864478044194 1 1 1 0 0.2047583980726056 0 1 0.05821738812714483 1 1 1 1 1 1 1 0 0 0.5767720951204108 1 1 1 0 1 0 0.1064999635589848 1 0 47:1 60:1 61:1 69:1 76:1 89:1 101:1 110:1 113:1 122:1 127:1 141:1 167:1 180:1 186:1 187:1 190:1 
-1 -1 1 1 1 0 0 1 1 1 1 1 1 0.1876201764090397 0.9029472111561885 1 1 0.6755746657173097 0.03880524143016598 1 0.7110986233680044 1 0 1 0.4115321602394699 1 0 0 0 0.6418752536149913 0 1 0 1 0.6132740678512405 1 0 0 1 1 1 1 1 0 0 0 1 1 60:1 61:1 69:1 75:1 101:1 109:1 113:1 123:1 125:1 127:1 154:1 167:1 186:1 188:1 190:1 192:1 202:1 204:1 
-0 -0 1 0 0 0.6528044692487409 1 0 0 0 0.6353281918239597 0 0 0 0 0 0 0 0 0 0 0 0 0 0 0 0 0 0 0 0 0 0 0 0 0 0 0 0 0 0.9816922110495165 0 0 0 0 1 0 0 60:1 61:1 69:1 76:1 88:1 100:1 101:1 111:1 123:1 125:1 126:1 140:1 154:1 167:1 179:1 189:1 191:1 202:1 
-1 -1 0 1 1 1 1 1 1 0 0 0 0 1 0 1 0 0 0.06101071052294172 0 0 0 0 0 0 0 0 0 0 0 1 1 0 0.02714674689806757 0.47017164665499 0 0 1 0 0 0 0 0 0 0 0 0 0 47:1 57:1 59:1 60:1 61:1 76:1 89:1 101:1 111:1 113:1 122:1 125:1 127:1 141:1 167:1 180:1 187:1 190:1 201:1 202:1 
-0 -0 0 0 0 0 0 0 0 0 0 0 0.1722601605867886 0 0 0 0.315995299505701 0 0 0 0 0 0 0 0 0 0 0 0 0 0.2691102704921178 0 0 0 0 0 0 0 0 0 0 0 0 0 0 0 0 0 58:1 59:1 61:1 69:1 76:1 88:1 100:1 109:1 111:1 113:1 126:1 127:1 141:1 180:1 186:1 188:1 191:1 192:1 200:1 202:1 203:1 204:1 
-0 -0 0 0 0 0 0 0 0 0 0 0 0 0 0 0 0 0 0 0 0 0 0 0 0 0 0 0 0 0 0 0 0 0 0 0 0 0 0 0 0 0 0 0 1 0 0 0 58:1 61:1 69:1 88:1 100:1 110:1 122:1 124:1 125:1 126:1 140:1 154:1 167:1 179:1 187:1 190:1 191:1 201:1 202:1 
-0.7923624922578202 -1 0 0.3562194869451189 1 0 1 1 0 1 1 1 0 1 1 1 1 1 1 0 0.4653974779977915 1 1 1 1 1 1 0.3355212021915516 1 0.4051605123998236 0 1 0 1 1 1 1 1 1 1 1 0 0.07524084595286359 1 1 1 0.9281411713594359 1 47:1 57:1 60:1 69:1 76:1 88:1 110:1 113:1 122:1 124:1 125:1 140:1 179:1 186:1 187:1 190:1 201:1 204:1 
-0 -0 0 0 0 0 0 0 0 0 1 0 0 0 0 0 0 0 0 0 0 0 0 0 0 0 0 0 0 0 0 0 0 0 0 0 0 0 0 0 0 0 0 0 0 0 0 0 59:1 60:1 61:1 69:1 88:1 100:1 110:1 111:1 122:1 123:1 125:1 126:1 140:1 154:1 167:1 179:1 186:1 190:1 191:1 201:1 202:1 
-0 -0.179290610124509 0 0.5681680386294323 0 0 0.987492071067834 0 0 0 1 0 0 0.3596419929415642 0.7272357103368898 0 0 0.9140823584117708 0 0 0 0 0 0 0 0 0 0 0 0 0 0 0 0 0.03997729465301746 0 0.1366982020845188 0 0 0 0 1 0 0 0 0 0 0.808691028040697 1:1 19:1 21:1 45:1 46:1 55:1 56:1 60:1 61:1 62:1 69:1 75:1 76:1 97:1 100:1 109:1 112:1 122:1 123:1 126:1 140:1 154:1 167:1 179:1 186:1 187:1 189:1 190:1 191:1 200:1 202:1 
-1 -0 1 0 0 0 0 1 0 1 0 1 0 0 0 0 0.09034031848218084 0 0 0 0 0 0 0 0 0 0 0 0 0 0 0 0 0 0 0 0 0 0 0 0 0.3315387986135775 0 0 0 0 0 0 60:1 61:1 69:1 75:1 76:1 100:1 101:1 109:1 113:1 123:1 125:1 127:1 139:1 154:1 167:1 178:1 186:1 188:1 190:1 192:1 202:1 204:1 
-0 -0 0 1 0 0 0 0 0 0 1 1 0 0 0 0 0 0 0 0 0 1 1 0 1 0 0.04695950926735792 0.7582386637139367 0.5849455818277346 0 0 0 0 0 0.05557783806279323 0 1 0 0 0 0 0 0 0 0 0 0 0 44:1 46:1 56:1 60:1 61:1 69:1 88:1 100:1 110:1 111:1 112:1 122:1 126:1 127:1 141:1 166:1 167:1 179:1 186:1 187:1 190:1 202:1 
-0 -1 0 0 0 0 0 0 0 0 0 0 0 0 0 0 0 0 0 0 0 0 0 0 0 0 0 0 0 0 0 0 0 0 0 0 0 0 0 0 0 0 0 0.9183069034024676 0.7489988480324232 0 0 0 58:1 61:1 69:1 76:1 88:1 100:1 111:1 113:1 125:1 126:1 127:1 141:1 180:1 186:1 188:1 191:1 192:1 200:1 201:1 204:1 
-0 -0 0 1 0.388333204597595 0 0 1 0 0 1 1 0 0.1009014820397479 1 0 0 0 0 0 0.8129198563719316 0 1 0.3473831059471578 0.5980315452172968 0 0 0.7770740390243916 0 0.7200572275170238 0 0 0 1 0 0 0 0 0 1 0 0 0.1687676687915657 0 0 0 0 0 44:1 47:1 58:1 61:1 75:1 88:1 100:1 109:1 110:1 122:1 124:1 125:1 140:1 141:1 154:1 167:1 179:1 188:1 190:1 200:1 202:1 204:1 
-0.1635224620182426 -0 1 0 0 0 0 0 0 1 0 0 0 0 0 1 0 0 0 0 0.5888952316366602 0 0 0 0 0 0 0 0 0 0 0 0 0.163405819413932 0 0 0 0 0 0 0 0 0 0 0 0 0 0.1803231763810964 47:1 60:1 61:1 88:1 100:1 110:1 111:1 113:1 126:1 140:1 141:1 167:1 179:1 186:1 190:1 192:1 201:1 202:1 
-1 -1 1 1 1 1 1 1 1 1 1 1 1 1 1 1 1 1 1 1 1 1 1 1 1 1 1 1 1 1 1 1 1 1 1 1 1 1 1 1 1 1 1 1 1 1 1 1 44:1 46:1 59:1 75:1 110:1 122:1 125:1 127:1 139:1 141:1 166:1 173:1 178:1 188:1 190:1 192:1 200:1 202:1 
-0 -1 0 0 0 1 0.04174401884183235 0.6074585875777964 1 0 0.6737852399841786 0 0 1 0.3526562834187981 1 0 0 1 0 0.05112682057679568 0 0.8768570716714409 1 0.2227213931768796 1 0.08523580473855845 1 0 0.924786334421365 0 1 0 1 1 1 1 1 1 1 0.803152648435993 1 0 0.9346037969470511 1 1 1 1 45:1 59:1 61:1 69:1 88:1 89:1 101:1 110:1 113:1 124:1 141:1 167:1 180:1 186:1 190:1 201:1 204:1 
-0 -0 0 0 0 0 0 0.2347700527181981 0 0 0.9387117569099074 1 0 0.2704468733956045 0 0 0 0 0 0.2191551187495409 0 0 0 0 0 0.3941225323878402 0 0 0 0 0 0.9577177396345598 0 0 0.582223557378422 0 0 0 0 0 0 0 0 0 0 0 0.4780678634148151 0 45:1 46:1 56:1 58:1 60:1 61:1 69:1 88:1 89:1 101:1 109:1 113:1 122:1 123:1 127:1 131:1 139:1 144:1 154:1 167:1 178:1 186:1 187:1 189:1 192:1 201:1 203:1 204:1 223:1 
-1 -0 1 1 1 0 0 1 1 0.02317187300700536 1 1 0.6408729664813215 0 1 0.5493979985067236 1 0 0.4758631102635148 0.374451137109418 0 0 1 0 1 0 0 1 0.421917249949757 1 1 0 1 0 0 0.1371588569110613 0 0 0 0.2436496934822219 0.7809617100764928 0 0 1 0.6073664852910077 1 0 0.6348737752075394 58:1 59:1 61:1 69:1 76:1 88:1 100:1 110:1 112:1 113:1 127:1 141:1 153:1 166:1 180:1 186:1 188:1 192:1 203:1 204:1 
-0.7225039738511877 -0.6775111413626892 0 1 1 0.341353991394011 1 1 1 0 0 0 0.774080628564661 1 0 0.83314281614828 0 0 0.9430368399807234 0 0 0 0 0 0 0.2935958214275274 0 0 0 0 1 0 0 0 0 0 0 1 0 0.1325326979631936 0 0 0 0 0 0 0 1 47:1 57:1 59:1 60:1 61:1 75:1 76:1 101:1 111:1 122:1 125:1 127:1 141:1 167:1 180:1 187:1 190:1 201:1 202:1 204:1 
-0 -0 0 0 0 0 0 0 0 0 0 0 0 0 0 0 0 0 0 0 0 0 0 0 0 0 0 0 0 0 0 0 0 0 0 0 0 0 0 0 0 0 1 0 0 0 0 0 47:1 61:1 88:1 100:1 122:1 124:1 125:1 126:1 140:1 154:1 167:1 179:1 186:1 187:1 190:1 191:1 201:1 202:1 
-1 -1 1 1 1 1 1 1 1 1 1 1 1 1 1 1 1 1 1 1 1 1 1 1 1 1 1 1 1 1 1 1 1 1 1 1 1 1 1 1 1 1 1 1 1 1 1 1 48:1 69:1 75:1 76:1 127:1 140:1 180:1 189:1 200:1 203:1 204:1 
-0.1892354362752677 -1 0 1 1 0.6347905104985274 1 1 0.8116809827403677 1 1 1 0 1 1 1 1 0.2163618615155055 1 0 1 0.2173116605103212 1 1 1 1 0.4100197936344591 1 0 1 1 1 1 1 1 0.2739644360816476 0 0 1 1 1 1 1 1 1 1 1 1 47:1 57:1 69:1 75:1 76:1 89:1 100:1 109:1 123:1 127:1 140:1 154:1 180:1 187:1 188:1 189:1 192:1 201:1 203:1 
-0 -0 1 1 0.655198630178382 0 1 0 0 1 1 0 0 0.2806639914293084 1 0 1 0 0 0 1 0 0 0 0 1 0 1 0 1 0 0 0 1 0 0 1 0 0 0 0 0 0 1 1 0 0.7228106843707882 0 47:1 61:1 88:1 100:1 110:1 111:1 126:1 140:1 154:1 167:1 173:1 179:1 187:1 190:1 191:1 201:1 203:1 
-1 -1 1 1 1 1 1 1 0.04251656380909456 1 1 1 1 1 1 1 1 1 1 1 1 1 0.1420200533257051 1 1 1 1 0 1 0.9162582122036498 1 1 1 1 1 1 1 1 1 1 1 1 1 1 1 1 1 1 45:1 46:1 57:1 58:1 61:1 75:1 113:1 122:1 123:1 167:1 178:1 187:1 188:1 190:1 191:1 202:1 
-0 -0 0.4205669753468248 0 0 0 0 0 0 0 0 0 0 0 0 0 0 0 0 0 0 0 0 0 0 0 0 0 0 0.1579894406449025 0 0 0 0 0 0 0 0 0 0 0 0 0.4698194752808464 0 0 0 0 0 47:1 61:1 88:1 100:1 110:1 111:1 122:1 125:1 126:1 140:1 154:1 167:1 179:1 186:1 187:1 191:1 201:1 202:1 
-0 -0 1 0 0 0.7530836594892403 1 0 0.975577115751519 0 1 0 0 0 0 0 0 0 1 0 0 0 1 0 1 0 0 0 0 0.323680065857215 0 0 0 0 0.1007609271722561 0 0 1 0 0 1 0 0 0 0 1 0 0 45:1 57:1 59:1 60:1 61:1 69:1 76:1 88:1 100:1 101:1 111:1 122:1 123:1 140:1 154:1 167:1 179:1 190:1 
-0 -0 0 0 0 0 0 0 0 0.1401019250553135 0 0 0 0 0 0 0 0 0 0 0 0 0 0 0 0.171766578416656 0 0 0 0 0 0 0 0 0 0 0 0 0 0 0 0 1 0 0 0 0 0 47:1 61:1 88:1 100:1 122:1 124:1 125:1 126:1 140:1 154:1 167:1 179:1 186:1 187:1 190:1 191:1 201:1 202:1 
-0 -0 0 1 1 0 1 0.2771356537029431 0 0 0.3309726710558288 1 0 1 0 0 0 0 0 0 0 0 0 0 0 0 0 0 0 0 0.6144207049327144 0 0 0 0 0 0 0 0 0 0 0 0 0 0 0 0 0 44:1 46:1 47:1 57:1 60:1 61:1 62:1 69:1 76:1 88:1 110:1 113:1 122:1 125:1 140:1 154:1 167:1 173:1 179:1 180:1 187:1 202:1 203:1 204:1 
-0 -0 0 1 0 0.7261184591036952 0 1 0 0 0.4266079148125184 0 0 0 0 0 0 0 0 0 0 0 0 0 0 0 0 0 0 0 0 0 0 0 0 0 1 0.1715603878409194 0 0 0 0 0 0 0 0 0 0.7208458270177562 45:1 47:1 58:1 61:1 63:1 100:1 110:1 122:1 124:1 125:1 126:1 140:1 154:1 167:1 179:1 186:1 187:1 190:1 191:1 201:1 202:1 
-0 -1 0 0 0 1 0 0.4212609534201706 0 0 0 0 0 1 0 0 0 0 0 0 0 0 0 0 0 0 0 0 0 0 0.04181363007760286 0 0 0 0 0 0 0 0 0.4168586519638273 0 0 0 0 0 0 0 0.8563338816814399 45:1 58:1 61:1 63:1 69:1 75:1 76:1 88:1 89:1 109:1 111:1 113:1 126:1 127:1 141:1 180:1 186:1 191:1 192:1 201:1 202:1 204:1 
-0 -0 0 0 0.877454138992677 0 0 0 0 0 0 0 0 0 0 0 0 0 0 0 0 0 0 0 0 0 0.4694411929081415 0 0 0 0 0 0 0 0 0 0.4623079855941831 0 0 0 0 0 0 0 0 0 0 0 58:1 59:1 60:1 61:1 69:1 76:1 88:1 101:1 109:1 111:1 113:1 122:1 125:1 127:1 139:1 167:1 178:1 180:1 187:1 188:1 190:1 204:1 
-0 -1 0.7003587975791398 1 1 0.9666083508576382 1 1 0 0.09484727973680987 1 0 1 0 1 0.2719975609137271 0.21581747482258 1 0.6068124606616194 0 0.5438342801057505 0 0 0 0 0 0 0 0 0 0 1 1 0.1130816504919609 1 0 1 0.8773439664722497 0 0.9809838130908802 0 1 0.9438178234992234 0.1561255994030599 1 0.4444477349146459 0.8510349069313861 1 45:1 47:1 61:1 76:1 88:1 100:1 109:1 123:1 124:1 125:1 126:1 140:1 154:1 167:1 173:1 179:1 188:1 189:1 191:1 203:1 
-0 -1 1 1 1 0.4798075753796859 0 1 1 1 0 1 1 1 1 1 1 0.4904362801480562 1 1 1 0 0 1 0 1 0.5096482361194935 0.8705244977291624 0 0.9785276495216114 1 0 1 0.9372896864113309 0 1 1 0 1 1 0.4326933532872301 0 0.9865297719714891 0.3378137397838925 1 0.4198952949232928 1 1 46:1 47:1 60:1 62:1 76:1 88:1 109:1 111:1 113:1 127:1 154:1 167:1 178:1 186:1 187:1 189:1 192:1 201:1 204:1 
-1 -0 0 1 0.2064614295553531 0 0 1 0 0 1 0 1 0 1 0 0 0 1 1 0.1851395598562282 0 0 0.6086978168571602 0 0 0 0 0 0 1 0 0 0.8892687087186835 0 0 0 0 0 0 0 0 0 0 0 0 0 0 46:1 58:1 60:1 61:1 69:1 75:1 100:1 109:1 122:1 123:1 125:1 140:1 154:1 167:1 179:1 187:1 188:1 190:1 191:1 202:1 
-1 -0 0 0.8990434702418088 1 0 0 1 0 0 1 0 1 0.2331436707070984 0 1 0 0 1 1 0 0 0 0 0 0 0.7736851271895577 0 0.4540237447638807 0 0.9570669064795103 0 0.6669854092164438 0 0 0 1 0.1111158810767387 0 0 0 0 0 0 0 0 0 0 46:1 47:1 58:1 60:1 61:1 69:1 100:1 111:1 122:1 125:1 140:1 154:1 167:1 179:1 187:1 190:1 191:1 201:1 
-0 -0 0 0 0 0 0 0 0 0.2721065045196608 0 0 0 0 0 0 0 0 0 0 0 0 0 0 0 0 0 0 0 0 0 0 0 0 0 0 0 0 0 0 0 0 0 0 0 0 0 0 58:1 61:1 69:1 76:1 88:1 100:1 109:1 111:1 113:1 126:1 127:1 141:1 180:1 186:1 191:1 192:1 200:1 201:1 202:1 204:1 
-1 -1 1 1 1 1 1 0.3442780923339064 1 0.07027387628806327 1 0 1 0.8573563869341203 1 1 0.6240865439449605 1 0 0.9328060055440786 0 0 0 0 1 0 0.4278091525644727 0 0.7309717005945242 0 1 1 0.7052446556481646 0.01231266724370236 1 0 1 1 0.5797909548989214 0 0 1 0 1 1 1 1 1 47:1 48:1 57:1 60:1 62:1 63:1 69:1 75:1 88:1 100:1 109:1 112:1 113:1 124:1 126:1 139:1 141:1 153:1 179:1 180:1 186:1 189:1 191:1 202:1 
-0 -0 0 0 0 0 1 1 0 0 0 0 0 0 0 0 0 0 0 0 0 0 0 0 0 0 0 0 0 0 0 0 0 0 0 0 0 0 0 0 0 0 0 0 0 0 0 0 46:1 57:1 58:1 60:1 61:1 76:1 88:1 100:1 101:1 109:1 113:1 123:1 125:1 126:1 140:1 154:1 167:1 179:1 189:1 191:1 201:1 203:1 204:1 
-0 -0 0 0 0 0 0 0 0 0 0 0 0 0 0 0.3715061412517507 0 0 0 0 0 0 0 0 0 0 0 0 0 0 0 0 0 0 0 0 0 0 0 0 0 0 0 0 0 0 0 0 46:1 57:1 58:1 60:1 61:1 76:1 88:1 101:1 109:1 110:1 111:1 113:1 122:1 125:1 127:1 154:1 167:1 186:1 187:1 189:1 192:1 201:1 204:1 
-0.7339304469801108 -1 0.7398086411494937 1 1 1 1 1 0.233389519574633 1 0.7563179626422577 0.03542531775983154 0 1 1 1 0.1540091434565765 0.7150956441586722 0 0 1 0 0 0.05148814970459378 0.5968705763180074 1 1 0.204319791876915 0.8407947623529337 1 1 0 0.9334749040904429 1 0 0.08066564471407149 1 1 1 1 1 1 1 0.9051164315264819 0 1 1 0.2977132188320296 46:1 56:1 59:1 62:1 76:1 100:1 101:1 111:1 122:1 125:1 126:1 140:1 154:1 167:1 179:1 187:1 190:1 201:1 202:1 
-1 -1 1 1 1 1 1 1 0.7601760026673942 1 1 1 1 1 1 1 1 1 1 1 1 1 1 1 1 1 1 1 1 1 1 1 1 1 1 1 1 1 1 1 1 1 1 1 1 1 1 1 44:1 46:1 48:1 57:1 62:1 76:1 88:1 89:1 100:1 111:1 125:1 140:1 179:1 187:1 188:1 202:1 203:1 
-1 -1 0 1 1 1 1 1 0 0 1 0 0.3794602212092901 0.6638874442730233 0 1 0 0.135072801332404 0 1 0 0 0 0 0 0 0 0 0 0 0.2231313363787324 0 0.4784087890950878 0 0 0 0.8928741793461834 1 0 0 0 0 0 0 0 0.6094888199927292 0 1 46:1 47:1 48:1 57:1 60:1 69:1 76:1 100:1 110:1 124:1 125:1 126:1 140:1 154:1 167:1 179:1 189:1 191:1 201:1 203:1 204:1 
-0 -0 0 0.6492387917384734 0 0 0 0 0 0 0 0 0 0 0 0 0 0 0 0 0 0 0 0 0 0 0 0 0 0 0 0 0 0 0 0 0 0 0 0 0 0 0 0 0 0 0 0.2877474497947323 33:1 45:1 47:1 57:1 58:1 61:1 76:1 88:1 100:1 109:1 111:1 113:1 126:1 127:1 141:1 180:1 186:1 191:1 192:1 200:1 201:1 202:1 204:1 
-0.7772477989216786 -0 1 1 0.9956275085914252 0 1 0 0.7375602128455381 1 1 0.1244442407021776 0 1 1 0 1 0 0 0 1 0 0 0.8633867982191452 0 1 0 0.3048277504657581 0 1 0 0 0 1 0 0.6884897098586957 1 0 0.05411862487158195 0.4406775655891397 0 0 0 1 1 0 1 0 47:1 61:1 88:1 100:1 110:1 111:1 126:1 140:1 154:1 167:1 173:1 179:1 187:1 190:1 191:1 201:1 203:1 
-0.3374891194127366 -0.2093815810822607 1 1 0.04970481363377332 0.08990482124099054 1 1 1 1 1 1 0.2503701976521502 0.8549111553131982 1 0.132203007664209 1 1 1 0.2382602886415595 1 1 1 1 0.7136319636305718 1 0.7479381496757664 1 0.9243554785765272 1 1 0.271008719169839 0.3804713841920991 1 0.9172658872522901 1 1 0 1 1 0 0 1 1 1 0 1 1 46:1 57:1 61:1 79:1 88:1 93:1 100:1 110:1 122:1 124:1 126:1 131:1 140:1 154:1 167:1 173:1 179:1 187:1 191:1 201:1 203:1 
-0 -0 0 0 0 0 1 0 0 0 0 0 0 0 0 0 0 0 0 0 0 0 0 0 0 0 0 0 0 0 0 0 0 0 0 0 0 0 0 0 0 0 0 0 0 0 0 0 58:1 59:1 61:1 69:1 76:1 88:1 100:1 109:1 111:1 113:1 123:1 126:1 127:1 141:1 180:1 186:1 188:1 191:1 192:1 200:1 202:1 204:1 
-1 -0 0 1 0 0.1707549619717433 1 1 0 0.2748268788060431 1 0 0 0 0 1 0.9866642875584232 0 0 0 0 0 0 0 0 0 0 0 0 0 0 0.1442883039746106 0 0 1 0 1 0.3745083472519182 0 0 0.6065955992231319 0.03942132497646748 0 0 0.962046711502053 0 1 0 45:1 59:1 61:1 69:1 88:1 89:1 101:1 109:1 111:1 113:1 123:1 125:1 127:1 139:1 167:1 178:1 180:1 188:1 190:1 202:1 204:1 
-1 -1 0.6186766277277462 1 1 1 1 1 0 1 0 1 1 1 1 1 1 1 0.2149366619972467 1 0.746164356124435 1 0.9026016505621621 1 1 1 1 0.2009939454358451 1 0 1 1 1 1 1 1 1 1 1 1 0.3938962956951719 1 0 0 0.01925068581314692 0 1 0.3252024906976081 47:1 58:1 62:1 63:1 69:1 89:1 101:1 111:1 113:1 126:1 127:1 141:1 180:1 186:1 191:1 192:1 200:1 201:1 202:1 203:1 204:1 
-0 -0 0.3993217216915822 0 0 0 0 0 0 0 0 0 0 0 0 0 0 0 1 0 0 0 0 0 0 0 0 0 0 0 0 0 0 0 0 0 0 0 0 0 0 0.3378037188888033 0 0 0 1 0 0 58:1 59:1 60:1 61:1 69:1 76:1 88:1 100:1 111:1 122:1 125:1 140:1 154:1 167:1 179:1 190:1 201:1 
-0 -1 0 1 0 0.7244603297049528 0 1 0 1 0 0 1 1 1 1 1 0.4232806671933962 0.7859688523975441 0.1327787909605895 1 0.2372696320652492 0 0 0 1 0 0 0 0.0282799820232332 0.4205223546216069 1 0 1 1 0 0 0 1 1 0 0 0.3083944591370242 0 0.2124612320851364 0 1 0 45:1 59:1 61:1 69:1 88:1 89:1 101:1 109:1 113:1 122:1 125:1 127:1 141:1 180:1 187:1 190:1 192:1 201:1 202:1 
-0 -1 0 1 0 0 0 0 0 0 0 0 0 0 0 1 0 1 0 0 0 0.5981907362778504 0 0 0 0 0.187380350761839 0 0 0 0 0 0 0 0 0 1 0 0 0 0 0 0 0 0 0 0 0 44:1 45:1 47:1 48:1 69:1 76:1 88:1 110:1 122:1 124:1 125:1 126:1 140:1 154:1 167:1 179:1 186:1 187:1 190:1 191:1 201:1 
-0 -0 0 0 0 0 0 0 0 0 1 0 0 0 0 0 0 0 0 0 0 0 0.7493745363985043 0 0 0 0 0 0 0 0 0 0 0 0 0 0.6321116889125936 0 0 0 0 0 0 0 0 0 0 0 44:1 46:1 56:1 60:1 61:1 69:1 88:1 100:1 110:1 111:1 122:1 126:1 140:1 154:1 167:1 179:1 186:1 187:1 191:1 201:1 202:1 
-0 -1 0 0 0 0.2517934204372714 0 0.4709544419037074 0 0 0 0 0 0 0 0 0 0 0 0 0 0 0 0 0 0 0 0 0 0 1 1 0 0 0 0 0 0 0 0 0 0 0 0 0 0 0 0 46:1 47:1 58:1 60:1 61:1 69:1 75:1 76:1 89:1 100:1 101:1 111:1 122:1 125:1 126:1 154:1 167:1 187:1 188:1 190:1 191:1 202:1 
-0 -0 0 0 0 0 0 0 0 0 0 0 0 0 0 0 0 0 0 0 0 0 0 0 0 0 0 0 0 0 0 0 0 0 0 0 1 0 0 0 0 0 0 0 0 0 0 0 58:1 59:1 61:1 69:1 76:1 88:1 100:1 109:1 111:1 113:1 124:1 126:1 127:1 141:1 180:1 186:1 191:1 192:1 200:1 201:1 202:1 204:1 
-0.3718460053062997 -1 1 1 1 1 0.9036916285323727 1 0 0.9427616514862821 0 0 0 1 1 0.8272376626772125 1 1 0 0 1 1 0.789957867164944 0.9723742443561678 0 1 0 0 0.5221346084096531 0.9910513130923484 0 1 0 1 0 0.009351840793945885 1 1 0.07885688733298656 0.7677082286708997 1 1 0.5952006657377922 1 1 1 1 1 45:1 48:1 62:1 69:1 76:1 88:1 89:1 100:1 111:1 125:1 126:1 127:1 141:1 153:1 187:1 190:1 192:1 201:1 
-0 -0 0 0 0 0 0 0 0 0 0 0 0 0 0 0 1 0 0 0 0 0 0 0 0 0 0 0 0 0 0 0 0 0 0 0 0 0 0 0 0 0 0 0 0 0 0 0 58:1 60:1 61:1 69:1 76:1 88:1 101:1 111:1 113:1 122:1 125:1 127:1 139:1 154:1 167:1 178:1 187:1 188:1 190:1 192:1 202:1 204:1 
-0 -0 1 1 0 0 1 1 1 0 1 0.9252075281817297 0 0 0 0 0 0 0.4247437266589248 0 0 0 1 0 0.2207506955090625 0 1 0.6151852516827134 1 0.6248182742711114 0 0.7001255553190359 0 1 1 0 1 0.1676870667473422 0 0 1 0 0 0 0 0 0 0 45:1 57:1 59:1 60:1 61:1 69:1 88:1 89:1 101:1 111:1 113:1 122:1 123:1 139:1 141:1 153:1 154:1 166:1 167:1 178:1 180:1 190:1 
-1 -1 1 1 0 1 0.7866632129173502 0.4276959046826419 1 0 1 0 0 0 1 1 0 0.8477218465503638 0 0 0 1 1 0.7855013002883677 1 0.7583534462003448 1 0 0.2313179388129416 1 0 0 0.6679205985024903 0 0 1 1 1 1 0 1 0 1 1 1 1 1 1 57:1 61:1 62:1 69:1 88:1 100:1 101:1 110:1 111:1 125:1 139:1 154:1 180:1 186:1 190:1 191:1 201:1 
-0 -0 0 0 0.9321656288469249 0 0 0 0 0 0.387837136842099 0 0 0 0 0 0 0 0 0 0 0 0 0 0.2403715359079846 0 0 0 0 0 0 0.2795764937434455 0 0 0.5918914801603071 0 0 0 0 0 0 0 0 0.2331804373385378 1 0 0 0 58:1 61:1 69:1 76:1 88:1 100:1 109:1 111:1 113:1 123:1 124:1 126:1 127:1 141:1 180:1 186:1 188:1 191:1 192:1 200:1 203:1 204:1 
-1 -1 1 1 1 1 1 1 1 1 1 1 1 1 1 1 1 1 1 1 1 1 1 1 1 1 1 1 1 1 1 1 1 1 1 1 1 1 1 1 1 1 1 1 1 1 1 1 45:1 56:1 59:1 60:1 61:1 89:1 109:1 123:1 126:1 153:1 180:1 191:1 202:1 
-1 -0 1 0 0 1 1 0.3111090883392781 0 0 0 0 0 0 0 0 0 0 1 0 0 1 0 1 0 0 0 0 1 0 0 1 0 0 1 0 0 0 0 0 0 0 0 1 1 0 0.7795928212381567 0 46:1 57:1 58:1 60:1 61:1 88:1 89:1 101:1 111:1 113:1 122:1 123:1 125:1 127:1 139:1 167:1 178:1 180:1 187:1 201:1 204:1 
-0.5445026212614316 -1 0 0.09740323048877583 0 0 1 0.8477044567351744 0 1 1 1 1 0.03996840016620315 0.6560082059144228 0 0 0.1329304650702433 0 0.8080613963889273 1 0 0.1817827048823463 0 0.6085037920323315 0.9579788469917651 1 0 1 0 0.4940665485936969 0.3128781729514489 0.3007785356896951 0.9345689074642026 1 0 0.7573313318410653 0 0.1116836247755187 1 0.5461146066120123 0.1207575504334885 0 1 1 1 0 1 46:1 57:1 61:1 69:1 72:1 76:1 88:1 100:1 109:1 112:1 124:1 126:1 140:1 154:1 157:1 167:1 173:1 179:1 187:1 189:1 190:1 191:1 
-0 -1 0 0 1 1 0 1 0.4573154084741821 0 0 0 0 0.1278649025657058 0 0 0 0 0 0.7012025752070227 0 0 0 0 0 0.4841457088205315 0 0 0 0 1 0 1 0 0 0 0 0 0 1 0.1370975589682023 0 1 0 0 1 0 0 46:1 58:1 61:1 69:1 75:1 76:1 101:1 111:1 122:1 125:1 127:1 141:1 167:1 180:1 187:1 188:1 190:1 202:1 204:1 
-0 -0 0 0 0 0 0 0 0 0 0.4327918912486933 0 0 0 0 0 0 0 0 0 0 0 0 0 0 0 0 0 0 0 0 0 0 0 0 0 0 0 0 0 0 0 0 0 0 0 0 0 44:1 46:1 57:1 61:1 69:1 88:1 100:1 110:1 122:1 124:1 125:1 126:1 140:1 154:1 167:1 179:1 186:1 187:1 190:1 191:1 201:1 202:1 
-0 -0 0 0 0 0 0 0 0 0 0 0 0 0 0 0 0 0 0 0 0 0 0 0 0 1 0 0 0 0 0 0 0 0 0 0 0 0 0 0 0 0 0 0 0 0 0 0 60:1 61:1 69:1 76:1 88:1 101:1 111:1 113:1 122:1 125:1 127:1 154:1 167:1 178:1 187:1 190:1 192:1 201:1 202:1 204:1 
-0 -0 1 1 0 1 1 0 0 0.3875297924885545 1 1 0 0 1 0.3239577068606977 1 1 0.4642738748331847 0 1 1 0.1273473366430322 1 0 0 0 0 0 0 0 1 0 1 1 0.2195426088602102 1 0.8219909662074594 0 0 1 0 0 1 1 0 0 1 44:1 45:1 56:1 57:1 61:1 62:1 76:1 88:1 97:1 101:1 110:1 111:1 113:1 122:1 124:1 126:1 140:1 154:1 167:1 179:1 187:1 190:1 201:1 
-0 -0.9680929551419881 0 1 0 0 0 0 0 0 1 0 0 0 0 0 0 0 0 0 0 0 0 0 0 0 0 0 0 0 0 0 0 0 0 0 0 0 0 0 0 0 0 0 0 0 0 0.8645821802119485 47:1 57:1 60:1 61:1 69:1 76:1 88:1 100:1 110:1 122:1 124:1 125:1 126:1 140:1 154:1 167:1 173:1 179:1 186:1 188:1 191:1 200:1 202:1 203:1 
-1 -1 1 1 1 1 1 1 0.5955510223739885 1 1 1 1 0 1 1 1 0 1 0.4431991240799552 1 0.992873786010231 0.6219494267307559 0.6562568692192251 0 0 0.5550320253156296 0.8745521350056112 0 1 0 0 0.1706594224103987 1 0 1 1 1 1 0 0.7184038193011467 0 1 1 1 1 1 0 47:1 61:1 88:1 100:1 110:1 111:1 125:1 126:1 140:1 154:1 167:1 179:1 188:1 189:1 191:1 202:1 
-0 -0 0.6347819641638174 1 0.09233889520854092 0 0 1 1 0 0.8255922184170099 0 0 0 0.2141675979516625 0 1 0 0 0.02948929995941968 0 0 0.6863294538496786 0 0 0 0 0 0 1 0 0 0 0 0.2086751754376498 0 0 0 0 0 0 0 1 1 0 0 0 1 47:1 58:1 60:1 61:1 69:1 76:1 88:1 100:1 110:1 112:1 113:1 122:1 124:1 127:1 141:1 153:1 166:1 173:1 180:1 185:1 188:1 192:1 202:1 204:1 
-0 -0 0 0 0 0.123200740608153 0 0 0 0 0 0 0.5253956125116911 0.9769144280660849 0 0 0 0 0 0 0 0 0 0 0 0 0 0 0 0 0 0 0 0 0 0 0 0 0 0 0 0 0 0 0 0 0 0.5065587931931984 58:1 59:1 60:1 61:1 69:1 76:1 88:1 101:1 109:1 111:1 113:1 127:1 154:1 167:1 186:1 187:1 189:1 192:1 201:1 204:1 
-1 -1 1 0.5238645572755649 0 1 0 0 0.03871271605676482 1 1 0 1 1 0.3594546160402934 1 1 1 1 0.4802119025677373 0.7303744826272464 0 0 0.5108892473902027 0.7772331346262973 1 0 0 0.5473994010488852 0.9257584404971128 0 0 0 0 0 1 1 1 1 0 1 0.9170570680068674 1 0 0.8647465135642104 0.9270328215421251 1 1 47:1 61:1 88:1 100:1 112:1 122:1 123:1 125:1 126:1 140:1 153:1 178:1 179:1 186:1 190:1 201:1 202:1 204:1 
-0 -1 1 0.198787787017865 0 0 0 1 0 0 0 0 0 0 0 1 0 0 1 1 0 0 0 0 0 1 0 0 0 0 0 1 0 0 0 0 0.6338214084596986 0 0 0 0 0 0 0 0 0 0 0 46:1 58:1 60:1 61:1 69:1 75:1 101:1 109:1 111:1 113:1 123:1 125:1 127:1 154:1 167:1 187:1 190:1 192:1 201:1 204:1 
-0 -0 0 0 0 0 0 0 0 0 0 0 0 0 0 0 0 0 0 0 0 0 0 0 0 0 0 0 0 0 0 0 0 0 0 0 0 0 0 0 0 0 0 0 1 0 0 0 58:1 61:1 69:1 88:1 100:1 110:1 122:1 124:1 125:1 126:1 140:1 154:1 167:1 179:1 187:1 190:1 191:1 201:1 202:1 
-0 -1 0 0.008756447110308664 1 1 1 1 0 0 1 1 0 0 1 0.1438739975340973 0 0.4360439964318726 0 0 0.2813612608898493 0.3344192478757254 1 0.4169948724604182 0 0.449515386098294 1 0.318581366895433 1 0 0 0 0 0 0 0 1 1 1 1 0 0 1 1 0 0.3007144687446368 0.7761773915911981 0 45:1 57:1 59:1 69:1 76:1 88:1 101:1 111:1 122:1 125:1 126:1 140:1 154:1 167:1 179:1 187:1 188:1 190:1 202:1 
-0 -0 0 0.1966427637942058 0 0 0 0 0 0 1 0 0 0 0 0 0 0 0 0 0 0 0 0 0 0 0 0 0 0 0 0 0 0 0 0 0 0 0 0 0 0 0 0 0 0 0 0 44:1 46:1 57:1 61:1 69:1 88:1 100:1 110:1 122:1 124:1 125:1 126:1 140:1 154:1 167:1 179:1 186:1 187:1 190:1 191:1 201:1 202:1 
-0 -0 0 0 0 0 0 0 0 0 1 0 0 0 0 0 0 0 0 0 0 0 0 0 0 0 0 0 0 0 0 0 0 0 0 0 1 0 0 0 0 0 0 0 0 0 0 0 45:1 47:1 59:1 61:1 69:1 88:1 100:1 111:1 123:1 125:1 126:1 140:1 154:1 167:1 179:1 186:1 187:1 191:1 201:1 202:1 203:1 
-1 -0 0.977379726213128 1 0 0 0 0 0 1 1 1 0.9019146063020642 1 1 0 1 0 0 0 1 0 0 0.3930940983791417 0.8843097637860077 1 1 0.4751182299648851 0.9548763286669284 0 0 0 0 1 0 1 1 0 1 1 0.006594277207732486 0.08868540782852798 1 0.6106983593874346 0 0.7338886482942849 0 0 60:1 61:1 69:1 100:1 111:1 122:1 125:1 140:1 154:1 167:1 179:1 187:1 190:1 191:1 201:1 202:1 
-0 -0 0.2251202383898226 0 0 1 0 0 1 0.5104476904257883 0 0 0.7393658987926247 0 0 0 0 0 0 1 0.629116015881957 0 0.5843259303031461 0 0 0 0 0.9400573968035464 0 0.9332793084904468 0.8491922727642012 1 0 0.6202238601162712 1 0 0 0 0 0 0.8665178653468127 0 0 0 0 0 0 0.1499501415867239 46:1 58:1 60:1 61:1 69:1 76:1 88:1 100:1 101:1 109:1 124:1 140:1 154:1 167:1 179:1 186:1 191:1 202:1 
-0 -0 0 0 0 0 0.1948423918678969 0.02897101726040011 0 0 1 0 0 0 0 0 0 1 0.2216130971146113 0 0 0 0 0 0 0 0 0 0 0 0 1 0 1 1 0 0 0 0 0 0 0 0 0 0 0 0 0 58:1 59:1 60:1 61:1 69:1 76:1 89:1 100:1 101:1 109:1 111:1 122:1 125:1 126:1 140:1 154:1 167:1 179:1 187:1 188:1 190:1 
-0 -0 0 0 0 0 1 0 0 0 0.6561607700785679 0 0 0 0 0.3171108333788352 0 0 0 0 0 0 0 0 0 0 0 0 0 0 0 0 0 0 0 0 0 0 0 0 0 0 0 0 0 0 0 0 58:1 59:1 61:1 69:1 76:1 88:1 100:1 109:1 111:1 113:1 123:1 126:1 127:1 141:1 180:1 186:1 188:1 191:1 192:1 200:1 202:1 204:1 
-0 -1 1 1 0.7442557441317016 1 1 1 1 0.9206053707431626 1 1 0.9821641667886882 1 0.5419936183280142 1 0 1 1 1 0 0.5722839422875041 1 0.1367859140687072 1 1 1 0.1973173379460156 0.03033590159952197 1 0 1 0 0 1 0 1 1 1 1 0 1 0 1 0 1 0 1 45:1 48:1 57:1 59:1 60:1 62:1 69:1 75:1 76:1 87:1 101:1 109:1 111:1 113:1 127:1 154:1 167:1 186:1 187:1 189:1 192:1 201:1 204:1 
-1 -1 1 1 1 1 1 1 1 1 1 1 1 1 1 1 1 1 1 1 0.6653384339451927 0.6076126114353249 1 1 1 1 1 1 1 1 1 1 1 1 1 1 1 1 1 1 1 1 1 1 1 0.8900173629985045 1 1 44:1 46:1 48:1 58:1 60:1 69:1 75:1 101:1 109:1 112:1 123:1 126:1 141:1 153:1 166:1 180:1 187:1 189:1 191:1 192:1 201:1 
-0 -0 0 0 0 0 0 0 0 0 0 0 0 0 0 0 0 0 0 0 0.06933539341264097 0 0 0 0 0 0 0 0 0 0 0 0 0 0 0 0 0 0 0 0 0 0 0 0.9350535300823507 0 0 0 58:1 61:1 69:1 88:1 100:1 110:1 122:1 124:1 125:1 126:1 140:1 154:1 167:1 179:1 187:1 190:1 191:1 201:1 202:1 
-1 -1 1 1 1 0.6983697495755512 1 1 1 1 1 1 0.8632370645524478 1 1 1 1 1 1 1 1 1 1 1 1 1 1 1 0.5255023395123538 1 0.9844812723159343 0 1 1 1 1 1 1 1 1 1 0 1 1 1 1 0.7060375399181564 1 45:1 56:1 59:1 60:1 76:1 88:1 100:1 113:1 123:1 125:1 127:1 139:1 141:1 173:1 178:1 180:1 190:1 192:1 200:1 204:1 
-1 -0 1 1 0 1 0 0.1788936651281283 1 1 1 1 1 0 1 1 1 0.4075051446904893 1 1 1 1 1 1 1 1 0 1 1 1 0 1 0 1 0.2203346714737778 1 1 0 1 0 1 1 0.3802302096303792 0.5080223172868581 1 0 1 0 47:1 61:1 88:1 100:1 109:1 110:1 112:1 126:1 140:1 153:1 167:1 179:1 186:1 191:1 201:1 202:1 
-0 -0.2507329248608335 0 0 0 0 0 0 0 0 0 0 0 0 0 0 0 0 0 0 0 0 0 0 0 0 0 0 0 0 0 0 0 0 0 0 0 0 0 0 0 0 0 0 0 0 0 0 45:1 58:1 61:1 69:1 76:1 88:1 100:1 111:1 113:1 126:1 127:1 141:1 180:1 186:1 191:1 192:1 200:1 201:1 204:1 
-0 -0 0 0 0 0 0 0 0 0 1 0 0 0 0 0 0 0 0 0 0 0 0 0 0 0 0 0 0 0 0 0 0 0 0 0 0 0 0 0 0 0 0 0 0 0 0 0 59:1 60:1 61:1 69:1 88:1 100:1 110:1 111:1 122:1 123:1 125:1 126:1 140:1 154:1 167:1 179:1 186:1 190:1 191:1 201:1 202:1 
-1 -1 1 1 1 1 1 1 1 0.3099967314402171 1 0 1 0.2664100432060903 1 1 1 1 1 1 1 1 1 1 1 1 0.3714832072327618 1 0 1 1 1 1 1 0 1 0 1 1 1 1 1 1 1 1 1 1 1 46:1 48:1 60:1 61:1 63:1 88:1 100:1 109:1 110:1 112:1 123:1 127:1 141:1 180:1 187:1 189:1 192:1 203:1 
-0 -0 0 0 0 0 0 0 0 0 1 0 0 0 0 0 0 0 0 0 0 0 0 0 0 0 0 0 0 0 0 0 0 0 0 0 0 0 0 0 0 0 0 0 0 0 0 0 34:1 45:1 47:1 56:1 57:1 59:1 61:1 69:1 76:1 88:1 100:1 110:1 122:1 124:1 125:1 126:1 140:1 154:1 167:1 179:1 186:1 187:1 190:1 191:1 201:1 
-0 -0 0 0 0 0 0 0 0 0 0.4455080607369607 0 0 0 0 0 0 0 0 0 0 0 0 0 0 0 0 0 0 0 0 0 0 0 0 0 0 0 0 0 0 0 0 0 0 0 0 0 45:1 58:1 60:1 61:1 69:1 76:1 88:1 100:1 109:1 111:1 113:1 123:1 124:1 126:1 127:1 141:1 180:1 186:1 188:1 191:1 192:1 200:1 202:1 203:1 204:1 
-1 -0 1 1 1 0 0.8339125553096832 0 1 0.718705323797345 0 0.8453119939855501 1 1 1 1 1 0.798673412402682 1 1 0.5527046123709861 1 1 0.1416952918896157 0 1 0 1 0 1 1 0 1 1 0 1 1 0.6662742898361963 0 0 0 0 0 1 1 0 0 1 47:1 59:1 60:1 62:1 88:1 100:1 110:1 111:1 113:1 122:1 127:1 141:1 180:1 186:1 187:1 190:1 192:1 200:1 202:1 204:1 
